~o
<STREAMINFO> 1 39
<VECSIZE> 39<NULLD><MFCC_E_D_A_Z><DIAGC>
~s "silst"
<NUMMIXES> 3
<MIXTURE> 1 3.407481e-01
<MEAN> 39
 -4.331007e+00 -2.373620e+00 2.051248e+00 4.455533e+00 2.786137e+00 5.732190e+00 3.643328e+00 4.739250e+00 4.133172e+00 4.291893e+00 3.460193e+00 1.960387e+00 2.092865e-01 -2.398080e+00 -8.043440e-01 -1.449847e+00 4.000881e-01 3.377815e-01 1.025420e+00 1.264020e+00 1.696747e+00 1.217745e+00 1.016790e+00 7.329927e-01 2.049418e-01 -6.999059e-02 4.313895e-01 6.779634e-01 8.635343e-02 -1.471479e-01 -1.484481e-01 -4.291250e-01 -3.879834e-01 -4.626864e-01 -3.705415e-01 -4.247268e-01 -3.095806e-01 -1.495790e-01 3.935722e-02
<VARIANCE> 39
 2.172945e+01 4.226356e+01 2.842793e+01 3.138926e+01 3.226604e+01 3.122641e+01 3.368995e+01 3.934730e+01 3.460363e+01 3.278218e+01 3.215128e+01 2.791301e+01 2.780594e-02 2.484994e+00 2.775477e+00 3.303251e+00 2.820922e+00 2.831736e+00 3.362833e+00 4.032380e+00 3.982297e+00 3.530040e+00 3.317526e+00 3.272583e+00 3.326237e+00 3.604353e-03 3.284850e-01 5.087492e-01 4.359893e-01 5.214996e-01 5.331942e-01 5.002313e-01 5.687713e-01 6.387472e-01 6.474841e-01 6.488537e-01 5.931019e-01 5.807240e-01 4.612435e-04
<GCONST> 1.028457e+02
<MIXTURE> 2 2.039385e-01
<MEAN> 39
 4.881809e+00 5.152216e+00 4.349479e+00 2.729620e-01 -8.734190e-01 -1.070735e+00 -2.667475e+00 -1.045141e+00 9.583935e-01 1.247694e+00 1.334603e+00 2.351260e+00 5.455205e-01 2.269404e+00 1.646223e+00 -1.270386e+00 -2.200337e+00 -1.884224e+00 -2.056776e+00 -1.793773e+00 -1.363566e+00 -1.270847e+00 -6.200786e-01 -4.406567e-01 -3.342736e-01 1.757103e-01 -7.872390e-01 -4.746304e-01 -3.431840e-01 -5.044606e-02 3.233866e-01 4.087540e-01 4.582750e-01 4.762695e-01 2.159286e-01 6.011883e-03 -2.733198e-02 -1.502660e-01 -2.578465e-02
<VARIANCE> 39
 3.276701e+01 4.490753e+01 5.122815e+01 4.305388e+01 3.978344e+01 3.884980e+01 4.673345e+01 4.879183e+01 4.590875e+01 4.714534e+01 5.275809e+01 3.924820e+01 3.094051e-02 3.532271e+00 3.735065e+00 5.403238e+00 3.612706e+00 3.872082e+00 4.456767e+00 4.294892e+00 3.908409e+00 4.250050e+00 4.180889e+00 4.272932e+00 4.382151e+00 3.784580e-03 4.624784e-01 2.899264e-01 6.044142e-01 7.612222e-01 6.029840e-01 6.300670e-01 8.137982e-01 7.399110e-01 8.047518e-01 7.475389e-01 8.529764e-01 7.363564e-01 4.623300e-04
<GCONST> 1.121222e+02
<MIXTURE> 3 4.553135e-01
<MEAN> 39
 -2.613803e+00 -2.292438e+00 1.814768e+00 3.002013e+00 3.757789e+00 3.876795e+00 2.742426e+00 2.685292e+00 2.946834e+00 1.432710e+00 1.923314e+00 1.472288e+00 8.795714e-02 -8.210523e-02 3.295276e-01 -1.530169e-02 -3.976934e-03 -3.121346e-01 -3.113567e-01 -3.505009e-01 -3.281415e-01 -3.038436e-01 -3.314068e-02 -7.558106e-02 -1.254072e-01 1.845365e-02 2.675273e-01 2.214932e-01 1.400627e-02 -5.009404e-02 -1.242442e-01 -8.351824e-02 -1.177281e-01 -8.006639e-02 -8.858834e-02 1.044855e-02 -7.808378e-02 -3.774319e-02 2.438109e-02
<VARIANCE> 39
 1.551403e+01 4.941406e+01 3.525331e+01 3.497161e+01 3.303957e+01 3.950927e+01 3.572632e+01 4.191865e+01 3.158200e+01 3.446032e+01 3.465923e+01 2.519538e+01 3.444011e-02 2.284364e+00 2.906596e+00 2.110338e+00 2.373100e+00 2.343376e+00 2.728421e+00 2.726398e+00 2.890764e+00 2.889086e+00 2.748305e+00 2.698983e+00 2.123334e+00 7.387710e-03 2.697349e-01 4.332466e-01 4.071788e-01 4.990221e-01 5.408261e-01 6.090398e-01 5.630957e-01 5.643693e-01 6.027030e-01 5.710871e-01 5.525097e-01 4.452796e-01 7.443946e-04
<GCONST> 1.009830e+02
~h "#i"
<BEGINHMM>
<NUMSTATES> 15
<STATE> 2
<NUMMIXES> 6
<MIXTURE> 1 7.062083e-02
<MEAN> 39
 -3.529808e+00 9.180908e+00 -6.015939e+00 -3.928781e+00 -6.382529e+00 -4.703350e+00 1.242039e+00 2.971282e-01 6.129592e+00 8.293526e+00 9.582402e+00 1.060887e+01 8.783842e-01 -6.790003e-01 -2.199176e-01 -1.515096e-01 -1.091003e-01 -4.723697e-01 -3.670949e-01 -8.059738e-01 -3.670638e-01 9.801775e-01 1.819927e+00 2.125880e+00 1.775527e+00 2.793693e-02 3.825846e-01 3.057796e-02 2.204301e-01 2.137114e-01 1.565979e-01 1.957141e-01 2.497174e-01 2.684641e-01 -1.228728e-01 -4.239548e-01 -7.184675e-01 -7.924238e-01 -1.359098e-02
<VARIANCE> 39
 1.736625e+01 3.253131e+01 2.444969e+01 1.787502e+01 2.037693e+01 1.424016e+01 2.192499e+01 3.314233e+01 7.108264e+01 7.122024e+01 5.076116e+01 6.974173e+01 6.577711e-03 8.456522e-01 7.837902e-01 9.521025e-01 1.135491e+00 1.251350e+00 1.458578e+00 2.151047e+00 1.365355e+00 3.033158e+00 3.699541e+00 4.795732e+00 4.181544e+00 2.872929e-04 1.174847e-01 1.712462e-01 2.643864e-01 2.639276e-01 2.674818e-01 3.171719e-01 3.435492e-01 3.164673e-01 5.278108e-01 7.159793e-01 5.630471e-01 5.296204e-01 2.027643e-04
<GCONST> 8.469626e+01
<MIXTURE> 2 1.047686e-01
<MEAN> 39
 9.474806e-02 1.040089e+01 -3.879576e+00 -4.625912e+00 -5.075819e+00 -5.754234e+00 -2.003860e+00 6.212414e-01 -2.894981e+00 -1.509730e+00 -3.082857e+00 -2.151911e+00 7.340990e-01 -3.918464e-02 1.081418e+00 -1.081087e-01 7.630504e-01 -4.365249e-01 1.742432e-01 -2.311293e-01 -3.012386e-01 -4.207556e-01 2.734380e-01 -1.189643e-01 1.034905e+00 1.137766e-02 1.752982e-02 -2.176465e-01 2.647464e-01 -1.879719e-02 1.053297e-01 1.937877e-01 -7.338337e-02 4.075404e-02 3.067513e-01 1.053710e-01 3.507487e-01 2.964100e-01 2.065245e-03
<VARIANCE> 39
 1.322067e+01 2.796067e+01 2.157616e+01 3.114456e+01 2.197997e+01 2.829239e+01 4.741025e+01 4.164817e+01 4.693114e+01 6.094656e+01 7.063017e+01 6.380822e+01 1.790442e-02 1.047510e+00 1.811375e+00 1.311056e+00 2.076339e+00 1.652493e+00 3.077174e+00 3.399252e+00 3.609343e+00 3.905740e+00 3.868415e+00 5.746141e+00 6.827472e+00 1.106263e-03 1.347927e-01 2.889525e-01 2.229170e-01 3.883433e-01 3.365988e-01 6.748659e-01 5.784571e-01 5.985335e-01 6.358794e-01 8.591735e-01 7.191973e-01 7.593120e-01 1.553622e-04
<GCONST> 9.760911e+01
<MIXTURE> 3 3.209735e-01
<MEAN> 39
 -3.210097e-01 1.232628e+01 5.951648e-01 -3.851586e+00 -3.575744e+00 -5.653274e+00 -6.812162e+00 5.571916e-01 2.293557e-01 -1.913642e+00 3.412097e+00 -1.353985e+00 7.899855e-01 -3.857277e-01 1.708634e+00 -6.363128e-01 1.033600e+00 -4.573880e-01 -3.622389e-01 -9.447902e-01 -3.447111e-01 -6.591147e-01 -6.702432e-01 5.333480e-01 -5.595254e-01 8.383488e-03 1.098840e-01 -5.219000e-01 8.334434e-02 3.589261e-04 -2.747262e-01 3.342299e-01 2.338133e-01 7.921178e-05 -1.568673e-01 1.558266e-01 -4.065956e-01 -4.723419e-02 1.649159e-03
<VARIANCE> 39
 1.039567e+01 3.037334e+01 2.251496e+01 3.413627e+01 2.475504e+01 2.686646e+01 3.976380e+01 2.687121e+01 3.203131e+01 3.013524e+01 2.801605e+01 2.777073e+01 9.744435e-03 5.312663e-01 1.498990e+00 1.556082e+00 2.250472e+00 2.057405e+00 3.183501e+00 2.157746e+00 2.527846e+00 2.231116e+00 2.993184e+00 2.721486e+00 2.115042e+00 4.599961e-04 8.942202e-02 2.699668e-01 2.358178e-01 4.320890e-01 4.166654e-01 4.285682e-01 3.669710e-01 3.935103e-01 3.868327e-01 3.600971e-01 3.423651e-01 4.302286e-01 7.200731e-05
<GCONST> 8.392424e+01
<MIXTURE> 4 1.575867e-01
<MEAN> 39
 -4.341727e-01 1.164293e+01 -3.815713e+00 -3.986016e+00 -6.431534e+00 -6.458163e+00 -9.694498e-01 7.910829e-01 -2.295441e-01 3.460967e-01 -5.422444e-01 1.657510e+00 8.058786e-01 -1.048387e+00 4.356764e-01 -9.624428e-01 -2.353730e-01 -1.009117e+00 -1.077604e+00 -1.191128e+00 -1.595098e+00 -1.858214e+00 -1.572184e+00 -1.023670e+00 -2.136747e-02 6.018114e-02 -1.381778e-01 -8.882058e-01 5.844177e-01 6.805519e-01 6.907160e-01 9.370425e-01 2.137905e-01 2.541625e-01 2.206694e-01 1.851058e-01 1.302731e-01 -3.665093e-03 -3.742814e-02
<VARIANCE> 39
 1.237424e+01 4.853384e+01 1.896170e+01 2.113146e+01 2.337280e+01 3.603696e+01 3.957281e+01 2.674024e+01 2.896599e+01 3.315715e+01 3.054818e+01 5.487596e+01 8.391717e-03 9.245117e-01 1.624918e+00 1.285343e+00 2.429490e+00 2.082559e+00 2.198132e+00 1.803355e+00 2.831400e+00 2.532701e+00 2.398270e+00 4.755580e+00 5.446335e+00 1.751257e-03 2.141867e-01 4.179842e-01 2.863827e-01 3.031137e-01 4.859670e-01 4.695286e-01 4.071631e-01 3.818392e-01 4.700463e-01 5.201104e-01 4.720223e-01 6.937118e-01 5.596060e-04
<GCONST> 9.247853e+01
<MIXTURE> 5 1.047721e-01
<MEAN> 39
 9.480146e-02 1.040044e+01 -3.879572e+00 -4.625874e+00 -5.076076e+00 -5.754128e+00 -2.003732e+00 6.212271e-01 -2.893984e+00 -1.509523e+00 -3.081648e+00 -2.151731e+00 7.340859e-01 -3.926152e-02 1.081446e+00 -1.081353e-01 7.630048e-01 -4.365379e-01 1.741757e-01 -2.312474e-01 -3.012158e-01 -4.207989e-01 2.733575e-01 -1.189666e-01 1.034671e+00 1.138069e-02 1.752276e-02 -2.176425e-01 2.647636e-01 -1.878392e-02 1.053274e-01 1.938076e-01 -7.338732e-02 4.074154e-02 3.067181e-01 1.053905e-01 3.506907e-01 2.964520e-01 2.065198e-03
<VARIANCE> 39
 1.322116e+01 2.796321e+01 2.157822e+01 3.114510e+01 2.198070e+01 2.829317e+01 4.741368e+01 4.165469e+01 4.694250e+01 6.096347e+01 7.064135e+01 6.381163e+01 1.790729e-02 1.047551e+00 1.811647e+00 1.311187e+00 2.076379e+00 1.652550e+00 3.077330e+00 3.399506e+00 3.610054e+00 3.906507e+00 3.868896e+00 5.746462e+00 6.828438e+00 1.106326e-03 1.348054e-01 2.890041e-01 2.229367e-01 3.883717e-01 3.366028e-01 6.748941e-01 5.785252e-01 5.986900e-01 6.360638e-01 8.592855e-01 7.193061e-01 7.594416e-01 1.553789e-04
<GCONST> 9.761352e+01
<MIXTURE> 6 2.412746e-01
<MEAN> 39
 3.020299e+00 1.338528e+01 -1.895634e+00 -6.542093e-01 -3.762505e+00 -3.044602e+00 1.890238e+00 2.691972e+00 8.671439e-01 3.629305e+00 -8.312743e-01 4.930894e+00 7.001179e-01 -1.723569e-01 5.280630e-01 -3.972169e-01 -1.532617e-01 -7.554909e-01 -4.765135e-01 -7.471438e-01 -5.682997e-01 -7.339396e-01 -7.377633e-01 -9.301044e-01 -3.316484e-02 3.218053e-02 -2.952057e-01 -4.192448e-01 -1.604255e-01 -1.937396e-01 -3.920746e-02 -2.507378e-01 -3.009663e-01 -3.076269e-01 -2.310152e-01 -4.210425e-01 -1.431177e-01 -3.290912e-01 3.694128e-03
<VARIANCE> 39
 9.169167e+00 2.666929e+01 1.898787e+01 1.756394e+01 1.401619e+01 1.561257e+01 2.487633e+01 2.763738e+01 2.426892e+01 2.782368e+01 2.771022e+01 3.300831e+01 1.354402e-02 7.573857e-01 1.340206e+00 8.379353e-01 1.057011e+00 1.014052e+00 1.241617e+00 1.735239e+00 1.642760e+00 1.846371e+00 2.056773e+00 2.318115e+00 1.908875e+00 9.653490e-04 9.078053e-02 2.565061e-01 1.500811e-01 2.215213e-01 2.682287e-01 2.477654e-01 2.754497e-01 3.003190e-01 3.126060e-01 2.920174e-01 4.731478e-01 4.438994e-01 1.958776e-04
<GCONST> 7.613004e+01
<STATE> 3
<NUMMIXES> 6
<MIXTURE> 1 6.692833e-02
<MEAN> 39
 -4.085453e+00 9.640432e+00 -8.372461e+00 -5.370025e+00 -1.012663e+01 -1.051609e+01 -4.921836e+00 -5.183939e+00 -2.034528e+00 9.107293e-01 1.404853e+00 9.321473e+00 9.034255e-01 -2.549641e-01 -7.234994e-02 7.035221e-02 1.981431e-01 -9.444436e-02 -7.424244e-02 -3.757032e-01 -4.757516e-01 -1.389410e-01 -2.563275e-01 3.794953e-01 5.769619e-01 1.389581e-02 4.175366e-01 3.518732e-01 4.614179e-01 4.477348e-01 5.984018e-01 6.431224e-01 6.348048e-01 6.544838e-01 4.448534e-01 3.098057e-01 1.300336e-01 -1.464943e-01 -6.475547e-03
<VARIANCE> 39
 1.989077e+01 2.669704e+01 1.469744e+01 1.416522e+01 1.934696e+01 1.820016e+01 2.439380e+01 2.014801e+01 7.060895e+01 6.326229e+01 1.226465e+02 1.422841e+02 5.434071e-03 4.229015e-01 4.653396e-01 6.485274e-01 1.001577e+00 1.176740e+00 9.050052e-01 1.045197e+00 1.218497e+00 8.567282e-01 1.644547e+00 2.036634e+00 3.266624e+00 1.326019e-04 6.873704e-02 7.718840e-02 1.319298e-01 2.017899e-01 2.124030e-01 1.972870e-01 2.487208e-01 2.298840e-01 2.962118e-01 5.409313e-01 6.310707e-01 7.282780e-01 3.902825e-05
<GCONST> 7.220706e+01
<MIXTURE> 2 1.008818e-01
<MEAN> 39
 -1.409181e+00 9.948495e+00 -4.300727e+00 -1.967530e+00 -6.370302e+00 -5.596446e+00 -3.366113e+00 -3.422356e+00 -5.114837e+00 -3.153003e+00 -5.259883e+00 1.579197e+00 8.562279e-01 -6.953320e-02 8.855116e-02 3.209675e-02 5.605139e-01 -1.427812e-02 4.869017e-03 -4.479165e-01 -4.934886e-01 -3.790880e-01 -3.880200e-01 -3.155277e-01 2.772367e-01 1.834389e-02 2.290593e-01 8.813237e-02 2.408102e-01 6.354677e-02 2.786613e-01 1.314991e-01 3.156125e-01 4.840810e-01 5.757234e-01 4.382220e-01 4.001527e-01 1.073553e-01 -4.636669e-03
<VARIANCE> 39
 1.192902e+01 3.379715e+01 1.470601e+01 1.499837e+01 2.159181e+01 2.929198e+01 2.476406e+01 2.483352e+01 1.860626e+01 2.277059e+01 3.378944e+01 3.057150e+01 9.115661e-03 3.848940e-01 5.090280e-01 7.008560e-01 8.829492e-01 1.065299e+00 9.211707e-01 1.356616e+00 1.411491e+00 1.476196e+00 1.441450e+00 1.841224e+00 1.639126e+00 1.693205e-04 7.398267e-02 9.334159e-02 1.207009e-01 1.581811e-01 1.922077e-01 2.584676e-01 2.189824e-01 2.593527e-01 2.259370e-01 2.201811e-01 3.700370e-01 3.359419e-01 4.469929e-05
<GCONST> 6.602649e+01
<MIXTURE> 3 4.399219e-01
<MEAN> 39
 -1.432411e+00 1.523952e+01 6.214328e-01 -1.942193e+00 -5.844010e+00 -4.437667e+00 -9.550285e+00 7.649261e-01 -1.719093e+00 -3.224044e+00 3.685898e+00 -2.896934e+00 8.326691e-01 -2.202764e-01 5.425494e-01 -1.042064e-01 2.774245e-01 -1.563828e-01 9.165292e-02 -2.103040e-01 -3.104856e-02 -1.779499e-01 -2.753147e-01 1.279122e-01 -1.800223e-01 1.374461e-02 9.249048e-02 -2.384131e-01 -1.312996e-02 -1.585551e-01 7.603485e-02 -1.977346e-02 1.073545e-01 -3.380129e-02 4.704539e-02 7.816693e-02 -1.132062e-01 8.448255e-02 -2.341589e-03
<VARIANCE> 39
 8.277217e+00 2.838904e+01 1.249201e+01 1.655778e+01 1.709759e+01 2.173601e+01 2.429988e+01 2.356973e+01 2.660931e+01 3.714542e+01 2.618868e+01 1.968021e+01 5.717147e-03 3.847710e-01 5.154621e-01 5.233874e-01 7.657871e-01 6.679809e-01 7.953007e-01 9.251845e-01 1.047121e+00 1.229844e+00 1.028810e+00 9.814686e-01 1.042703e+00 1.828169e-04 6.650160e-02 7.865405e-02 1.067723e-01 1.489422e-01 1.315127e-01 1.577956e-01 1.611191e-01 1.983945e-01 2.056104e-01 1.976204e-01 1.503707e-01 1.679174e-01 2.227634e-05
<GCONST> 5.686200e+01
<MIXTURE> 4 1.680441e-01
<MEAN> 39
 -9.445565e-01 1.235434e+01 -4.256069e+00 -1.191298e+00 -6.606424e+00 -6.363428e+00 -1.956755e+00 -1.480780e+00 -2.868101e+00 -9.946706e-01 -5.800513e+00 4.063698e+00 8.494961e-01 -8.340037e-01 -7.121129e-01 -9.072200e-01 -4.742189e-01 -9.748401e-01 -1.250529e+00 -1.609517e+00 -1.510725e+00 -1.303031e+00 -1.320704e+00 -1.170429e+00 -7.421594e-01 2.490483e-02 1.636591e-01 -3.588402e-02 1.461897e-01 4.224381e-02 1.324179e-01 1.318206e-01 1.690776e-01 1.263015e-01 1.551767e-01 1.754908e-01 2.425438e-01 6.729071e-02 -6.157593e-03
<VARIANCE> 39
 1.303572e+01 3.125634e+01 1.489650e+01 1.417032e+01 1.208013e+01 1.436338e+01 1.899160e+01 2.516376e+01 1.915487e+01 2.203165e+01 1.729234e+01 1.922311e+01 6.254376e-03 3.456309e-01 4.066394e-01 5.521966e-01 7.833633e-01 8.414693e-01 8.566320e-01 7.786102e-01 1.230132e+00 9.220417e-01 1.307220e+00 1.820860e+00 1.869714e+00 2.357647e-04 7.329830e-02 7.801515e-02 9.479287e-02 1.369469e-01 1.701951e-01 1.674264e-01 2.279889e-01 2.205531e-01 2.249399e-01 2.240295e-01 2.066880e-01 2.152420e-01 2.970425e-05
<GCONST> 5.844942e+01
<MIXTURE> 5 1.008780e-01
<MEAN> 39
 -1.409146e+00 9.948403e+00 -4.300681e+00 -1.967520e+00 -6.370177e+00 -5.596213e+00 -3.366041e+00 -3.422347e+00 -5.114804e+00 -3.152976e+00 -5.259705e+00 1.579183e+00 8.562293e-01 -6.954028e-02 8.855870e-02 3.210228e-02 5.605181e-01 -1.427461e-02 4.886287e-03 -4.478913e-01 -4.934857e-01 -3.791068e-01 -3.880323e-01 -3.155156e-01 2.772742e-01 1.834374e-02 2.290576e-01 8.812489e-02 2.408070e-01 6.354097e-02 2.786550e-01 1.314780e-01 3.156004e-01 4.840795e-01 5.757309e-01 4.382218e-01 4.001430e-01 1.073541e-01 -4.636635e-03
<VARIANCE> 39
 1.192927e+01 3.379722e+01 1.470673e+01 1.499852e+01 2.159251e+01 2.929359e+01 2.476458e+01 2.483370e+01 1.860647e+01 2.277086e+01 3.379107e+01 3.057258e+01 9.115498e-03 3.849010e-01 5.090389e-01 7.008764e-01 8.829712e-01 1.065329e+00 9.211968e-01 1.356643e+00 1.411547e+00 1.476263e+00 1.441475e+00 1.841276e+00 1.639189e+00 1.693218e-04 7.398352e-02 9.334198e-02 1.207049e-01 1.581849e-01 1.922164e-01 2.584782e-01 2.189864e-01 2.593686e-01 2.259421e-01 2.201855e-01 3.700548e-01 3.359512e-01 4.469971e-05
<GCONST> 6.602753e+01
<MIXTURE> 6 1.233429e-01
<MEAN> 39
 -9.692802e-02 1.383374e+01 -2.310551e+00 -2.795292e+00 -6.249162e+00 -6.768108e+00 -7.287128e+00 2.099302e+00 -2.813158e+00 -4.853607e-01 -7.252327e-01 -2.078303e+00 8.142115e-01 -4.447969e-01 2.396825e-01 -8.880905e-02 -3.783779e-02 -3.894352e-01 -4.615719e-01 -4.765235e-01 -5.481322e-01 -4.303718e-01 -3.017289e-01 -6.067103e-01 -3.421903e-01 2.662041e-02 8.520760e-03 -2.677069e-01 7.069427e-02 1.154751e-01 2.191480e-01 2.523398e-01 3.206053e-01 -6.041321e-02 9.326092e-02 4.110057e-02 1.933611e-01 2.198557e-01 -9.455241e-03
<VARIANCE> 39
 1.015363e+01 3.264848e+01 1.663006e+01 2.587542e+01 2.844230e+01 3.086384e+01 5.089087e+01 3.281440e+01 4.488605e+01 3.846635e+01 4.355003e+01 3.493550e+01 1.064439e-02 5.231777e-01 6.995884e-01 6.591623e-01 8.672843e-01 1.152711e+00 1.154126e+00 1.446873e+00 1.780960e+00 1.412377e+00 1.474757e+00 1.793513e+00 2.145538e+00 4.587937e-04 8.460595e-02 1.289144e-01 1.370275e-01 2.987788e-01 2.896223e-01 2.581365e-01 2.951312e-01 2.866677e-01 3.075756e-01 3.064896e-01 2.868018e-01 3.373773e-01 2.264778e-04
<GCONST> 7.617697e+01
<STATE> 4
<NUMMIXES> 6
<MIXTURE> 1 1.681219e-01
<MEAN> 39
 -1.726604e+00 1.178188e+01 -3.694700e+00 -2.439410e+00 -7.193187e+00 -6.774715e+00 -5.889567e+00 -2.855587e+00 -2.812883e+00 -2.357090e+00 -1.390350e+00 9.499650e-01 8.882531e-01 1.488978e-01 2.952607e-01 2.616695e-01 4.312271e-01 3.017252e-01 3.667460e-01 2.110057e-01 1.431640e-01 3.047157e-01 1.711334e-01 2.913226e-01 1.968070e-01 8.256219e-03 1.094517e-01 4.072247e-02 1.623100e-01 6.135882e-02 2.391962e-01 1.767201e-01 2.484443e-01 2.919662e-01 2.477446e-01 1.968006e-01 1.289348e-01 6.669432e-02 -3.437764e-03
<VARIANCE> 39
 1.348273e+01 4.180155e+01 2.470287e+01 1.841132e+01 2.136482e+01 2.744387e+01 3.781620e+01 3.112802e+01 4.186666e+01 4.206709e+01 6.292748e+01 6.169503e+01 7.056570e-03 3.166678e-01 5.710030e-01 6.101186e-01 7.734505e-01 9.631090e-01 1.070068e+00 1.176755e+00 1.128370e+00 9.905077e-01 1.218567e+00 1.131912e+00 1.495954e+00 8.328202e-05 4.251420e-02 9.137826e-02 1.246744e-01 1.657746e-01 1.847093e-01 1.802299e-01 2.153190e-01 2.256922e-01 2.167010e-01 2.039733e-01 2.778225e-01 2.429265e-01 2.718278e-05
<GCONST> 6.534998e+01
<MIXTURE> 2 1.036854e-01
<MEAN> 39
 -1.099351e+00 7.579302e+00 -1.491546e+00 -3.122101e-01 -2.423198e+00 -3.213108e+00 -3.290735e+00 -3.788791e-01 -2.472211e+00 -6.860490e-01 -8.791003e-01 1.120448e+00 9.363129e-01 2.047049e-01 2.933058e-01 2.681396e-01 3.714759e-01 3.508876e-01 3.082514e-01 3.188548e-01 3.277890e-01 3.266757e-01 1.904705e-01 2.363887e-01 2.153852e-01 1.961385e-03 -1.269953e-02 -4.316363e-02 -5.564874e-02 -6.893078e-02 -7.117280e-02 -6.219036e-02 -1.664029e-02 -4.241728e-02 5.097006e-03 -9.000440e-03 -3.070169e-02 -5.257742e-02 -1.609590e-03
<VARIANCE> 39
 6.308537e+00 3.946671e+01 7.586354e+00 1.091152e+01 1.403765e+01 2.255254e+01 2.109448e+01 1.621742e+01 1.545584e+01 1.436124e+01 2.938764e+01 2.426855e+01 3.445202e-03 1.001801e-01 1.804463e-01 2.653610e-01 3.661493e-01 5.191721e-01 4.906402e-01 5.542117e-01 4.622332e-01 4.758194e-01 4.659443e-01 5.608436e-01 4.757322e-01 4.020195e-05 1.833459e-02 3.944215e-02 5.346246e-02 6.132864e-02 9.356989e-02 8.545944e-02 1.011938e-01 9.629571e-02 9.468913e-02 8.496396e-02 9.213606e-02 7.643905e-02 3.776935e-06
<GCONST> 3.280478e+01
<MIXTURE> 3 3.541968e-01
<MEAN> 39
 -2.146745e+00 1.279519e+01 -6.208394e-01 -1.892986e+00 -3.649841e+00 -4.471862e+00 -6.211400e+00 -4.497914e-02 -1.381071e+00 -2.737705e+00 2.689080e+00 -7.817468e-01 8.947856e-01 9.268133e-03 2.719139e-02 -1.868975e-02 -6.827113e-02 6.631728e-02 -2.597963e-02 6.118474e-02 -1.563068e-02 3.630360e-02 -1.414853e-03 -3.951872e-04 1.108850e-04 2.059894e-04 1.329295e-02 -2.650613e-02 5.386282e-03 -3.309231e-02 -1.599203e-03 -2.150744e-02 6.696678e-03 3.735964e-03 8.635936e-03 1.578542e-02 -1.324195e-02 4.379940e-03 -9.796548e-04
<VARIANCE> 39
 7.443357e+00 5.125805e+01 8.752194e+00 9.031614e+00 1.019516e+01 1.581244e+01 2.719971e+01 1.386889e+01 1.905761e+01 2.599081e+01 2.936993e+01 2.464376e+01 6.870048e-03 5.565878e-02 8.073822e-02 1.012193e-01 1.336117e-01 1.551077e-01 1.685768e-01 1.864052e-01 2.035281e-01 2.264333e-01 2.266145e-01 1.585430e-01 1.865866e-01 3.754082e-05 7.632455e-03 1.496997e-02 1.779416e-02 2.129608e-02 2.819677e-02 2.859079e-02 3.029262e-02 3.291381e-02 4.064317e-02 3.758872e-02 2.847976e-02 3.831609e-02 3.730628e-06
<GCONST> 1.071907e+01
<MIXTURE> 4 1.212019e-01
<MEAN> 39
 -1.556092e+00 6.098902e+00 -1.388259e+00 -1.244882e-01 -1.920096e+00 -2.296666e+00 -1.181993e+00 -1.713077e-01 -1.405602e+00 -5.473400e-01 -1.348327e+00 2.585063e+00 9.486749e-01 -1.104197e-01 -4.151786e-01 -4.558466e-01 -3.220176e-01 -4.560915e-01 -4.401380e-01 -4.938461e-01 -5.205014e-01 -3.999897e-01 -3.750089e-01 -2.708559e-01 -2.912885e-01 1.793288e-03 -4.766623e-02 -1.272246e-01 -1.389161e-01 -1.724812e-01 -1.796175e-01 -1.492643e-01 -1.342458e-01 -1.641633e-01 -1.405687e-01 -1.191249e-01 -1.061880e-01 -1.408603e-01 -1.557314e-03
<VARIANCE> 39
 7.731988e+00 3.336169e+01 5.472480e+00 9.449758e+00 1.267036e+01 2.054262e+01 1.284775e+01 1.276105e+01 1.365352e+01 1.573938e+01 2.555753e+01 3.094191e+01 2.445641e-03 1.296497e-01 1.747115e-01 2.608602e-01 3.706271e-01 4.951616e-01 4.562814e-01 5.114266e-01 4.854667e-01 4.850196e-01 5.072978e-01 7.549477e-01 6.890295e-01 3.897686e-05 1.953842e-02 4.273683e-02 5.545251e-02 8.032066e-02 1.002205e-01 8.345024e-02 9.257767e-02 1.003802e-01 8.582952e-02 8.797386e-02 1.483746e-01 1.025934e-01 5.014102e-06
<GCONST> 3.341508e+01
<MIXTURE> 5 1.036961e-01
<MEAN> 39
 -1.099612e+00 7.577312e+00 -1.491705e+00 -3.121736e-01 -2.422884e+00 -3.212559e+00 -3.289915e+00 -3.792749e-01 -2.471807e+00 -6.860744e-01 -8.794324e-01 1.120572e+00 9.363282e-01 2.047315e-01 2.933024e-01 2.681923e-01 3.714762e-01 3.509114e-01 3.082926e-01 3.188973e-01 3.278312e-01 3.267227e-01 1.904775e-01 2.363877e-01 2.153489e-01 1.960201e-03 -1.269259e-02 -4.313149e-02 -5.562058e-02 -6.890547e-02 -7.114827e-02 -6.216472e-02 -1.660927e-02 -4.238222e-02 5.109976e-03 -8.986410e-03 -3.067973e-02 -5.254119e-02 -1.609366e-03
<VARIANCE> 39
 6.308484e+00 3.946293e+01 7.585462e+00 1.090987e+01 1.403459e+01 2.254735e+01 2.108923e+01 1.621292e+01 1.545258e+01 1.435873e+01 2.938368e+01 2.426870e+01 3.444278e-03 1.001715e-01 1.804041e-01 2.653422e-01 3.661138e-01 5.191439e-01 4.906148e-01 5.541182e-01 4.621636e-01 4.757529e-01 4.658810e-01 5.607527e-01 4.756481e-01 4.019625e-05 1.833384e-02 3.943707e-02 5.345536e-02 6.132049e-02 9.355146e-02 8.544556e-02 1.011800e-01 9.627350e-02 9.466331e-02 8.494996e-02 9.211829e-02 7.642943e-02 3.776578e-06
<GCONST> 3.279893e+01
<MIXTURE> 6 1.490918e-01
<MEAN> 39
 -9.849002e-01 1.197763e+01 -4.896380e+00 -2.134164e+00 -6.455625e+00 -8.331444e+00 -5.464806e+00 -1.340121e+00 -5.548254e+00 -2.368187e+00 -5.185851e+00 1.198986e+00 8.688217e-01 -5.203497e-02 -1.178719e-01 -2.197652e-01 -1.507426e-01 -1.220680e-01 -1.968642e-01 -1.496704e-01 -2.810989e-01 -6.101694e-02 -2.054303e-01 -1.921110e-01 -2.134470e-01 1.233162e-03 1.931603e-02 3.111596e-02 6.968924e-02 1.365077e-02 7.138301e-02 7.253049e-02 8.610413e-02 7.794575e-02 1.085043e-01 8.846173e-02 9.100036e-02 -2.033479e-03 -1.304988e-03
<VARIANCE> 39
 7.977625e+00 2.892404e+01 9.321239e+00 1.373133e+01 1.821368e+01 2.071920e+01 2.264085e+01 2.134009e+01 2.406447e+01 2.377704e+01 2.403199e+01 3.029950e+01 7.766835e-03 6.228879e-02 1.312046e-01 1.637971e-01 2.629742e-01 2.698130e-01 3.151277e-01 3.364521e-01 3.626578e-01 3.926323e-01 2.743848e-01 3.347243e-01 3.654541e-01 3.754082e-05 1.437039e-02 2.118106e-02 3.626918e-02 3.967049e-02 5.795797e-02 6.086626e-02 6.373686e-02 7.332682e-02 7.541528e-02 5.410123e-02 6.001953e-02 6.819454e-02 3.730628e-06
<GCONST> 2.597356e+01
<STATE> 5
<NUMMIXES> 6
<MIXTURE> 1 1.122111e-01
<MEAN> 39
 -6.235412e-01 1.233025e+01 -6.559507e+00 -2.508829e+00 -9.590041e+00 -7.940172e+00 -4.544545e+00 -3.419740e+00 -3.653176e+00 -3.785282e+00 -4.948195e+00 2.019108e+00 8.706605e-01 3.092305e-01 5.436500e-01 6.077856e-01 7.814286e-01 7.831178e-01 9.299183e-01 8.864464e-01 7.153335e-01 8.243687e-01 6.677617e-01 6.351848e-01 3.004647e-01 1.059443e-03 1.018854e-01 1.082507e-01 1.912619e-01 1.620225e-01 3.422810e-01 2.073174e-01 2.870054e-01 1.945761e-01 2.332547e-01 2.810917e-01 2.027400e-01 5.595898e-02 -1.185899e-03
<VARIANCE> 39
 1.529355e+01 2.544150e+01 2.101155e+01 1.696342e+01 1.728797e+01 2.295338e+01 1.805913e+01 2.781160e+01 2.832541e+01 4.373852e+01 5.343606e+01 6.547009e+01 8.903891e-03 2.597947e-01 4.499797e-01 4.139605e-01 6.909551e-01 7.276720e-01 8.213374e-01 7.800239e-01 8.565323e-01 7.475349e-01 8.966911e-01 8.034047e-01 1.193709e+00 4.185877e-05 3.531887e-02 5.514103e-02 7.125776e-02 9.838865e-02 1.368371e-01 1.203066e-01 1.380333e-01 1.284993e-01 1.351754e-01 1.452343e-01 1.654574e-01 1.916664e-01 7.888946e-06
<GCONST> 5.296947e+01
<MIXTURE> 2 1.347951e-01
<MEAN> 39
 6.740404e-01 1.454370e+01 -5.276177e+00 3.222946e-01 -5.814626e+00 -5.969935e+00 -1.547100e+00 -1.827361e+00 -7.273542e-01 2.053878e-01 -1.957197e+00 5.490878e+00 8.801309e-01 2.226999e-01 2.777849e-01 2.833718e-01 4.244702e-01 3.946105e-01 3.216373e-01 4.205762e-01 3.409904e-01 4.260486e-01 4.286080e-01 3.146091e-01 2.006926e-01 7.233446e-04 -8.232366e-02 -1.464608e-01 -8.343276e-02 -2.014330e-01 -1.275034e-01 -1.831636e-01 -9.639834e-02 -1.178019e-01 -1.060198e-01 -8.688870e-02 -9.219385e-02 -1.519596e-01 -1.227803e-03
<VARIANCE> 39
 1.701039e+01 2.627226e+01 1.907848e+01 1.500371e+01 1.446622e+01 2.020963e+01 1.606818e+01 3.169087e+01 3.072372e+01 4.081065e+01 6.321862e+01 5.910565e+01 6.498994e-03 1.397378e-01 2.429520e-01 3.267879e-01 4.030880e-01 5.945481e-01 7.309395e-01 6.805387e-01 6.786120e-01 6.061389e-01 8.146708e-01 7.021958e-01 8.438703e-01 3.754082e-05 2.707021e-02 4.711667e-02 8.653034e-02 8.505824e-02 1.179134e-01 1.435659e-01 1.474030e-01 1.599256e-01 1.337126e-01 1.731727e-01 1.446575e-01 1.385167e-01 4.072717e-06
<GCONST> 4.774677e+01
<MIXTURE> 3 3.102128e-01
<MEAN> 39
 -1.260172e+00 1.696828e+01 7.785028e-01 -1.232649e+00 -6.662316e+00 -3.506786e+00 -1.111150e+01 1.831150e-01 -2.201184e-01 -4.858284e+00 4.148737e+00 -4.660363e+00 8.588367e-01 2.767769e-02 5.364670e-02 5.344390e-02 -5.611094e-02 1.475822e-01 -1.056396e-01 1.313832e-01 4.348145e-02 1.705206e-01 1.175411e-01 2.607709e-02 -6.146765e-02 -3.997348e-04 -5.277674e-03 -8.383406e-02 5.910201e-03 -7.735766e-02 5.685160e-02 -9.155589e-02 6.778592e-02 -4.113318e-02 1.185797e-02 3.964768e-02 -2.534367e-02 5.372237e-02 -1.073753e-03
<VARIANCE> 39
 1.186209e+01 2.683733e+01 1.710055e+01 1.806898e+01 2.242488e+01 2.342844e+01 2.784978e+01 3.045638e+01 2.661183e+01 3.499399e+01 2.673176e+01 1.800846e+01 4.079877e-03 1.030002e-01 2.152018e-01 3.486589e-01 4.039242e-01 3.682593e-01 5.875696e-01 6.987094e-01 6.587706e-01 6.497473e-01 5.675778e-01 5.304333e-01 5.402380e-01 3.754082e-05 2.154141e-02 3.751433e-02 5.794593e-02 7.672200e-02 7.685383e-02 1.078899e-01 1.185141e-01 1.087494e-01 1.455248e-01 1.076324e-01 1.047364e-01 9.018004e-02 3.823304e-06
<GCONST> 4.020534e+01
<MIXTURE> 4 1.398781e-01
<MEAN> 39
 4.408544e-01 1.445669e+01 -4.343192e+00 2.739564e-01 -6.089070e+00 -6.629261e+00 -1.470406e+00 -1.421733e+00 -1.754219e+00 -7.767582e-01 -4.708514e+00 3.056161e+00 8.688512e-01 -1.967117e-01 -4.247842e-01 -5.554602e-01 -4.816678e-01 -6.052824e-01 -7.117855e-01 -4.207831e-01 -6.298379e-01 -4.219874e-01 -4.189831e-01 -4.269114e-01 -4.508557e-01 1.027126e-04 -9.490666e-02 -1.191732e-01 -1.465574e-01 -2.373920e-01 -1.724338e-01 -1.916789e-01 -2.033983e-01 -1.503725e-01 -1.262202e-01 -2.038463e-01 -8.754402e-02 -1.723975e-01 -1.045355e-03
<VARIANCE> 39
 1.748567e+01 2.240960e+01 1.094792e+01 1.222146e+01 1.349759e+01 1.752690e+01 1.559579e+01 2.397535e+01 2.102289e+01 2.304760e+01 2.810280e+01 4.146668e+01 6.868285e-03 7.308173e-02 2.213718e-01 2.863656e-01 3.666762e-01 4.438344e-01 4.337879e-01 5.450873e-01 5.119058e-01 6.333467e-01 6.602240e-01 4.722302e-01 5.624071e-01 3.754082e-05 1.566656e-02 4.182301e-02 5.098215e-02 5.247903e-02 7.970597e-02 1.076390e-01 1.266266e-01 1.202161e-01 1.061624e-01 8.873466e-02 8.496340e-02 1.139398e-01 3.730628e-06
<GCONST> 3.650923e+01
<MIXTURE> 5 1.347919e-01
<MEAN> 39
 6.740642e-01 1.454358e+01 -5.276322e+00 3.222647e-01 -5.814662e+00 -5.970066e+00 -1.547149e+00 -1.827588e+00 -7.274826e-01 2.052234e-01 -1.957446e+00 5.490786e+00 8.801311e-01 2.226868e-01 2.777610e-01 2.833498e-01 4.244497e-01 3.945960e-01 3.216214e-01 4.205475e-01 3.409748e-01 4.260371e-01 4.285960e-01 3.145909e-01 2.006750e-01 7.230209e-04 -8.231232e-02 -1.464407e-01 -8.340660e-02 -2.014101e-01 -1.274744e-01 -1.831368e-01 -9.637961e-02 -1.177718e-01 -1.059965e-01 -8.686976e-02 -9.217578e-02 -1.519476e-01 -1.227793e-03
<VARIANCE> 39
 1.701019e+01 2.627246e+01 1.907868e+01 1.500384e+01 1.446609e+01 2.020982e+01 1.606821e+01 3.169163e+01 3.072260e+01 4.081075e+01 6.321699e+01 5.910466e+01 6.498912e-03 1.397355e-01 2.429352e-01 3.267736e-01 4.030864e-01 5.945176e-01 7.309141e-01 6.805216e-01 6.786005e-01 6.061150e-01 8.146532e-01 7.021585e-01 8.438210e-01 3.754082e-05 2.706944e-02 4.711277e-02 8.652557e-02 8.505537e-02 1.179092e-01 1.435587e-01 1.473973e-01 1.599204e-01 1.337084e-01 1.731634e-01 1.446550e-01 1.385108e-01 4.072415e-06
<GCONST> 4.774569e+01
<MIXTURE> 6 1.681093e-01
<MEAN> 39
 -1.028870e+00 1.139913e+01 -5.811337e+00 -2.541975e+00 -8.731570e+00 -9.074927e+00 -5.126343e+00 -4.494040e+00 -3.989370e+00 -4.676217e+00 -5.891471e+00 3.959173e-01 8.840598e-01 -1.372482e-01 -2.238320e-01 -4.552737e-01 -3.868377e-01 -4.473121e-01 -3.674106e-01 -3.931583e-01 -4.261825e-01 -2.593454e-01 -4.346952e-01 -2.983001e-01 -3.398680e-01 -2.972200e-05 9.590650e-02 1.647258e-01 2.109624e-01 1.662132e-01 3.287362e-01 3.201852e-01 2.989284e-01 2.910950e-01 2.817906e-01 2.221746e-01 2.015124e-01 1.703465e-01 -1.620758e-03
<VARIANCE> 39
 1.638197e+01 3.368559e+01 1.917775e+01 1.651399e+01 1.756264e+01 2.594731e+01 2.176366e+01 2.408859e+01 2.105391e+01 2.967350e+01 3.669365e+01 5.017495e+01 6.145454e-03 1.177149e-01 2.368722e-01 3.034236e-01 5.380980e-01 5.634291e-01 6.607167e-01 7.405923e-01 6.286652e-01 6.557149e-01 7.358729e-01 7.370094e-01 6.857170e-01 5.796638e-05 2.078686e-02 5.350614e-02 7.735351e-02 1.050682e-01 9.466062e-02 1.041590e-01 1.326941e-01 1.408833e-01 1.348271e-01 1.511439e-01 1.155377e-01 1.396942e-01 8.468759e-06
<GCONST> 4.677257e+01
<STATE> 6
<NUMMIXES> 6
<MIXTURE> 1 1.215406e-01
<MEAN> 39
 -1.602037e+00 3.444844e+00 -5.097422e+00 -3.268830e+00 -5.835647e+00 -5.428542e+00 -3.960175e+00 -4.994947e+00 -4.534132e+00 -3.805912e+00 -4.686270e+00 -7.350787e-01 9.313731e-01 2.898621e-01 2.411886e-01 2.483810e-01 1.482672e-01 3.416282e-01 2.027842e-01 3.690599e-01 2.851108e-01 2.186475e-01 2.024764e-01 3.035577e-01 1.129825e-01 -4.568688e-03 1.614963e-01 2.405895e-01 4.300831e-01 3.236742e-01 4.267346e-01 3.160258e-01 4.021219e-01 4.491042e-01 3.707326e-01 3.224265e-01 2.809578e-01 2.273048e-01 -1.487031e-03
<VARIANCE> 39
 8.487229e+00 3.414893e+01 9.130190e+00 9.485884e+00 1.724119e+01 1.932741e+01 9.794397e+00 1.169318e+01 1.396663e+01 1.242697e+01 2.130942e+01 1.867776e+01 3.663748e-03 1.532865e-01 2.413608e-01 4.985242e-01 5.941342e-01 8.867244e-01 6.927199e-01 8.532597e-01 9.579045e-01 8.082511e-01 6.641827e-01 7.833740e-01 6.953316e-01 3.754082e-05 2.292432e-02 5.946073e-02 7.082685e-02 8.812131e-02 1.409177e-01 9.135116e-02 1.031981e-01 1.669028e-01 1.211550e-01 1.190121e-01 1.622459e-01 1.524324e-01 4.200707e-06
<GCONST> 4.086113e+01
<MIXTURE> 2 1.505443e-01
<MEAN> 39
 1.201306e+00 6.229369e+00 -1.266441e+00 2.690421e-01 -2.013884e+00 -2.526360e+00 -5.519537e-01 -4.393940e-01 -1.012444e+00 -3.795578e-01 -1.713202e+00 3.246121e-01 9.098608e-01 4.403994e-01 3.901284e-02 2.163980e-01 3.763876e-01 4.128658e-01 2.539774e-01 1.170778e-01 7.520910e-02 4.396824e-01 6.602542e-01 2.112853e-01 1.352407e-03 -6.294594e-03 -2.359283e-02 -7.072701e-02 -1.322741e-01 -1.390744e-01 -8.983304e-02 -1.114647e-01 -2.158294e-01 -1.502024e-01 -9.546762e-02 -7.450642e-02 -3.220784e-02 -6.092770e-02 -9.595593e-04
<VARIANCE> 39
 9.380681e+00 3.378820e+01 1.109774e+01 8.780061e+00 1.606272e+01 1.552316e+01 1.538083e+01 1.442750e+01 1.454424e+01 2.885920e+01 2.042378e+01 1.369576e+01 3.401342e-03 2.595640e-01 5.148321e-01 9.692994e-01 7.578161e-01 9.648831e-01 1.104352e+00 1.538918e+00 1.317303e+00 1.208825e+00 1.114587e+00 1.449850e+00 1.080199e+00 5.145615e-05 4.428857e-02 8.351091e-02 1.273891e-01 1.293755e-01 1.500262e-01 1.747344e-01 2.136414e-01 2.098377e-01 1.701088e-01 2.094135e-01 1.970723e-01 1.647700e-01 3.730628e-06
<GCONST> 5.253433e+01
<MIXTURE> 3 3.056853e-01
<MEAN> 39
 -1.172526e+00 1.476224e+01 -5.040185e-01 -1.759482e+00 -3.951713e+00 -4.728570e+00 -8.777827e+00 -3.703364e-01 -1.211135e+00 -2.882999e+00 3.406753e+00 -3.177590e+00 8.737001e-01 4.755084e-03 -1.892654e-01 1.336304e-02 -1.928787e-01 2.553862e-01 -2.654312e-01 2.902276e-02 -3.099259e-02 3.517422e-01 1.005842e-01 -4.298062e-02 -5.484826e-02 -3.586427e-03 3.849389e-02 -1.284115e-01 7.400410e-02 -1.252359e-01 1.095316e-01 -3.531973e-02 8.572153e-02 3.296036e-02 5.918911e-02 3.638607e-02 -9.783947e-02 6.340504e-02 -2.456122e-03
<VARIANCE> 39
 1.033944e+01 2.953391e+01 1.707409e+01 2.084121e+01 1.928389e+01 2.414414e+01 2.518178e+01 2.087369e+01 2.684224e+01 3.409522e+01 2.763956e+01 1.838434e+01 4.517388e-03 2.565177e-01 3.422559e-01 4.346434e-01 7.940146e-01 5.967086e-01 6.851786e-01 7.628526e-01 7.938680e-01 9.664032e-01 9.504029e-01 7.405329e-01 6.803653e-01 8.270964e-05 5.206165e-02 7.019987e-02 9.157002e-02 1.224065e-01 1.114622e-01 1.434464e-01 1.322085e-01 1.476507e-01 1.601334e-01 1.568691e-01 1.417449e-01 1.240588e-01 7.835226e-06
<GCONST> 5.061126e+01
<MIXTURE> 4 1.125211e-01
<MEAN> 39
 9.291086e-01 1.039710e+01 -3.242415e+00 1.124194e+00 -3.731021e+00 -3.065218e+00 -8.255004e-01 -2.007605e+00 -2.081229e+00 5.438669e-01 -2.455268e+00 2.974385e+00 9.212606e-01 -4.374276e-01 -4.658107e-01 -6.468854e-01 -8.982846e-01 -5.013505e-01 -8.305514e-01 -4.391884e-01 -7.999148e-01 -3.770425e-01 -4.570232e-01 -2.405241e-01 -6.648906e-01 -9.985220e-04 -1.793794e-01 -2.555254e-01 -2.385619e-01 -4.337068e-01 -1.962016e-01 -4.553634e-01 -1.826282e-01 -2.455187e-01 -2.124455e-01 -3.356289e-01 -1.922780e-01 -2.981992e-01 -1.006064e-03
<VARIANCE> 39
 6.809209e+00 5.376771e+01 1.646121e+01 1.173519e+01 2.022323e+01 3.115675e+01 1.109097e+01 1.960581e+01 1.418191e+01 1.561062e+01 2.413881e+01 2.602275e+01 3.723117e-03 2.294238e-01 4.096508e-01 4.347456e-01 6.145610e-01 6.478130e-01 9.309261e-01 9.235341e-01 8.932828e-01 9.270498e-01 9.793124e-01 1.530275e+00 1.011309e+00 3.754082e-05 3.665769e-02 8.102410e-02 1.248277e-01 1.158426e-01 1.267537e-01 1.399681e-01 1.624603e-01 2.045379e-01 1.470069e-01 1.816992e-01 1.872591e-01 1.434886e-01 3.730628e-06
<GCONST> 4.945843e+01
<MIXTURE> 5 1.505079e-01
<MEAN> 39
 1.201893e+00 6.232072e+00 -1.266619e+00 2.693936e-01 -2.015121e+00 -2.526868e+00 -5.523523e-01 -4.385497e-01 -1.012210e+00 -3.786706e-01 -1.713169e+00 3.243551e-01 9.098384e-01 4.404778e-01 3.892744e-02 2.161193e-01 3.763468e-01 4.129751e-01 2.539621e-01 1.169251e-01 7.506970e-02 4.396875e-01 6.604439e-01 2.110514e-01 1.181744e-03 -6.292653e-03 -2.359828e-02 -7.071272e-02 -1.323414e-01 -1.390892e-01 -8.978301e-02 -1.114886e-01 -2.158484e-01 -1.502581e-01 -9.548403e-02 -7.454159e-02 -3.224679e-02 -6.090051e-02 -9.592345e-04
<VARIANCE> 39
 9.383257e+00 3.379576e+01 1.109952e+01 8.780684e+00 1.606650e+01 1.552784e+01 1.538107e+01 1.442980e+01 1.454988e+01 2.888369e+01 2.043258e+01 1.370030e+01 3.402639e-03 2.595838e-01 5.149216e-01 9.699193e-01 7.578611e-01 9.649926e-01 1.104704e+00 1.539142e+00 1.317600e+00 1.209185e+00 1.114735e+00 1.450854e+00 1.080651e+00 5.146851e-05 4.429264e-02 8.354352e-02 1.274266e-01 1.294049e-01 1.500354e-01 1.747837e-01 2.136696e-01 2.098860e-01 1.701472e-01 2.094938e-01 1.971147e-01 1.648183e-01 3.730628e-06
<GCONST> 5.254452e+01
<MIXTURE> 6 1.592014e-01
<MEAN> 39
 6.063541e-01 1.361741e+01 -4.838412e+00 -7.062377e-02 -6.635582e+00 -6.054399e+00 -3.262309e+00 -1.817297e+00 8.654675e-01 1.227686e+00 -9.473975e-01 3.242787e+00 8.673543e-01 -6.358499e-02 -2.229179e-02 -8.365786e-02 -2.564013e-01 2.815561e-01 -1.101824e-01 2.150232e-01 -8.938196e-02 3.077646e-01 3.994976e-02 2.423708e-01 -9.435305e-02 4.682977e-04 -5.836319e-02 -1.823422e-01 3.220415e-02 -3.603269e-01 1.424424e-01 -1.930011e-01 -2.361845e-02 -6.346419e-02 -7.956432e-02 -1.275267e-01 5.962984e-02 -9.880738e-02 -2.217741e-03
<VARIANCE> 39
 2.273869e+01 2.967023e+01 2.630320e+01 1.923018e+01 2.244109e+01 2.689976e+01 2.961934e+01 5.088543e+01 4.481363e+01 5.945621e+01 8.591613e+01 1.003310e+02 9.640878e-03 3.281565e-01 5.574270e-01 9.738809e-01 8.492411e-01 1.191529e+00 1.459135e+00 1.449859e+00 1.356013e+00 1.451646e+00 1.552761e+00 1.700507e+00 1.502998e+00 7.115579e-05 6.758731e-02 9.917444e-02 2.073811e-01 1.702923e-01 2.624865e-01 3.073418e-01 3.214017e-01 3.326195e-01 2.743886e-01 3.710493e-01 3.208745e-01 3.967420e-01 1.440287e-05
<GCONST> 7.339177e+01
<STATE> 7
<NUMMIXES> 6
<MIXTURE> 1 8.406870e-02
<MEAN> 39
 -3.277458e+00 1.082482e+01 -2.683468e+00 -3.682795e+00 -6.762983e+00 -5.225482e+00 5.419258e+00 7.611378e+00 1.834255e+01 1.734140e+01 1.077400e+01 3.707994e+00 9.476065e-01 -7.367311e-03 2.388338e-01 5.337929e-02 -1.745757e-01 3.654971e-01 -1.027311e-01 2.301182e-01 1.659916e-01 1.748157e-01 6.146612e-02 1.233205e-01 -4.767116e-01 -3.166255e-03 -1.001313e-01 -9.505495e-02 -3.110504e-02 -9.418035e-02 6.636674e-02 -3.464765e-02 4.019630e-02 -1.653029e-01 -7.816365e-02 6.067655e-02 1.991060e-02 9.095336e-02 -2.942228e-03
<VARIANCE> 39
 1.576267e+01 1.733834e+01 1.221728e+01 1.863850e+01 1.021156e+01 9.163039e+00 2.073925e+01 2.174723e+01 1.553787e+01 1.391152e+01 2.124780e+01 5.388042e+01 2.351079e-03 6.706225e-01 5.965433e-01 7.548631e-01 5.738291e-01 6.233294e-01 6.248536e-01 4.712038e-01 1.111728e+00 9.587467e-01 6.921450e-01 2.704309e-01 1.237290e+00 7.046085e-05 1.008418e-01 1.911651e-01 1.858730e-01 1.356515e-01 1.194641e-01 1.615286e-01 9.890229e-02 1.640539e-01 2.099546e-01 1.931845e-01 6.771006e-02 1.868477e-01 8.391658e-06
<GCONST> 5.036318e+01
<MIXTURE> 2 1.383227e-01
<MEAN> 39
 -3.291781e-01 1.053617e+01 -2.758627e+00 -1.777345e+00 -4.615193e+00 -6.017550e+00 -4.676723e+00 -1.903891e+00 -2.743063e+00 -1.667135e+00 -2.742543e+00 -8.870660e-01 8.457044e-01 4.548621e-01 -9.983064e-02 7.061057e-02 4.328582e-02 5.112324e-01 1.479229e-01 1.519846e-01 2.419654e-01 3.516405e-01 3.741616e-01 3.177298e-01 -3.722814e-02 -1.173892e-02 2.115202e-01 -2.734241e-02 1.318916e-01 8.149738e-02 2.043032e-01 1.403173e-01 1.834650e-01 9.414300e-02 1.284640e-01 2.581779e-02 1.325948e-01 2.709756e-02 -3.801926e-03
<VARIANCE> 39
 1.752004e+01 3.756290e+01 1.881045e+01 1.833326e+01 1.832266e+01 2.747038e+01 2.827891e+01 2.213729e+01 2.244996e+01 2.634602e+01 3.228208e+01 2.977090e+01 9.206990e-03 4.701346e-01 4.440812e-01 9.856696e-01 7.517624e-01 1.223153e+00 1.085044e+00 1.270292e+00 1.178262e+00 1.402597e+00 1.431765e+00 1.786590e+00 1.253707e+00 1.149436e-04 8.874547e-02 7.479851e-02 1.490922e-01 1.527672e-01 1.601653e-01 1.798789e-01 3.061207e-01 2.416989e-01 2.578433e-01 2.520336e-01 2.767163e-01 2.756300e-01 2.199142e-05
<GCONST> 6.550613e+01
<MIXTURE> 3 2.896136e-01
<MEAN> 39
 -1.983965e+00 1.632800e+01 2.169034e-01 -3.596320e+00 -4.802372e+00 -5.440823e+00 -1.016531e+01 -5.508575e-01 5.344877e-01 -4.332571e+00 5.382691e+00 -4.527330e+00 8.755293e-01 -8.128663e-02 -5.590611e-01 3.480292e-01 -9.206710e-01 5.988138e-01 -3.745812e-01 4.190056e-01 9.922983e-03 4.977041e-01 1.945144e-01 -2.131125e-01 3.485617e-01 -2.477712e-03 1.225688e-01 -3.270034e-01 2.496904e-01 -2.104412e-01 1.730961e-01 1.438320e-01 2.488721e-01 1.691540e-01 -4.360708e-02 1.302576e-01 -3.034686e-01 1.841175e-01 -4.167692e-03
<VARIANCE> 39
 8.758082e+00 2.499511e+01 1.545773e+01 1.719381e+01 1.700136e+01 2.200286e+01 2.357930e+01 2.386760e+01 2.428201e+01 2.309853e+01 1.553577e+01 1.395653e+01 4.859021e-03 2.550840e-01 4.073949e-01 4.082364e-01 1.069483e+00 5.886223e-01 7.812205e-01 8.624136e-01 9.955447e-01 1.329766e+00 9.895029e-01 1.242026e+00 8.206986e-01 1.262370e-04 4.022742e-02 7.914457e-02 1.268516e-01 1.457839e-01 1.517437e-01 1.676281e-01 2.123114e-01 2.017513e-01 1.443862e-01 2.059675e-01 1.157169e-01 1.454873e-01 1.538823e-05
<GCONST> 5.333807e+01
<MIXTURE> 4 1.700950e-01
<MEAN> 39
 -6.705166e-01 1.352447e+01 -6.948846e+00 -1.708096e+00 -8.059181e+00 -9.706224e+00 -4.685727e+00 -3.701609e+00 -3.948978e+00 -2.275942e+00 -6.438484e+00 -2.010834e-01 8.866668e-01 -6.557537e-01 -6.400853e-01 -3.141040e-01 -1.552856e+00 4.329369e-02 -1.257015e+00 2.576302e-01 -7.731142e-01 1.899040e-02 -1.006179e+00 6.044225e-02 -9.993052e-01 -2.253857e-03 1.478429e-01 -1.684391e-01 5.282393e-01 -2.625123e-01 5.971277e-01 1.524087e-01 3.310230e-01 3.724331e-01 1.581835e-01 1.530780e-01 3.817461e-01 7.984957e-03 -3.436262e-03
<VARIANCE> 39
 1.162376e+01 2.767625e+01 1.611648e+01 2.563096e+01 1.464091e+01 2.560215e+01 2.048722e+01 3.948545e+01 2.712283e+01 1.893854e+01 2.467163e+01 4.538079e+01 4.350389e-03 3.005042e-01 3.958235e-01 7.676102e-01 7.014904e-01 1.384665e+00 1.291371e+00 1.777876e+00 1.267630e+00 1.550399e+00 1.237045e+00 1.195248e+00 1.085009e+00 4.861578e-05 6.319255e-02 1.269546e-01 1.963249e-01 2.653604e-01 1.823372e-01 2.693928e-01 3.507918e-01 2.641484e-01 3.007229e-01 2.802909e-01 2.314818e-01 2.526160e-01 9.349333e-06
<GCONST> 6.348149e+01
<MIXTURE> 5 1.383206e-01
<MEAN> 39
 -3.294001e-01 1.053643e+01 -2.758733e+00 -1.777629e+00 -4.615359e+00 -6.017802e+00 -4.676943e+00 -1.904348e+00 -2.742890e+00 -1.667414e+00 -2.742727e+00 -8.875955e-01 8.456953e-01 4.548689e-01 -9.984981e-02 7.058764e-02 4.330009e-02 5.112809e-01 1.479654e-01 1.519535e-01 2.419626e-01 3.516702e-01 3.741733e-01 3.177419e-01 -3.716362e-02 -1.173788e-02 2.115419e-01 -2.733369e-02 1.318867e-01 8.150199e-02 2.043078e-01 1.403460e-01 1.834802e-01 9.418546e-02 1.284599e-01 2.584597e-02 1.326350e-01 2.714482e-02 -3.801687e-03
<VARIANCE> 39
 1.752013e+01 3.756357e+01 1.881239e+01 1.833656e+01 1.832449e+01 2.747285e+01 2.828045e+01 2.213905e+01 2.245119e+01 2.634835e+01 3.228336e+01 2.977516e+01 9.209803e-03 4.701464e-01 4.440857e-01 9.856938e-01 7.518342e-01 1.223302e+00 1.085130e+00 1.270303e+00 1.178341e+00 1.402648e+00 1.431791e+00 1.786628e+00 1.253789e+00 1.149734e-04 8.874892e-02 7.480019e-02 1.490946e-01 1.527802e-01 1.601775e-01 1.798960e-01 3.061413e-01 2.417140e-01 2.578608e-01 2.520569e-01 2.767464e-01 2.756543e-01 2.199901e-05
<GCONST> 6.550939e+01
<MIXTURE> 6 1.795777e-01
<MEAN> 39
 2.382913e-03 1.204592e+01 -4.574132e+00 -3.952274e-02 -4.315331e+00 -4.682375e+00 -8.358060e-02 -2.138058e+00 9.986317e-01 2.240769e+00 2.336458e+00 8.168957e+00 8.985207e-01 -2.019726e-01 -4.202513e-01 1.630987e-01 -7.742332e-01 4.197925e-01 -5.371381e-01 -6.037773e-02 -3.447601e-01 -1.875942e-01 2.041027e-01 2.787045e-01 -7.433473e-02 -4.713906e-03 -2.331151e-03 -3.557599e-01 1.656243e-01 -3.847120e-01 7.991189e-03 -2.314004e-01 -3.245662e-01 -9.914877e-02 -3.077994e-01 -2.528152e-01 -2.828765e-01 -4.536689e-01 -5.185159e-03
<VARIANCE> 39
 2.355447e+01 3.243650e+01 1.986110e+01 1.590869e+01 2.397823e+01 2.094365e+01 1.436677e+01 1.446153e+01 2.019300e+01 3.975342e+01 6.977690e+01 8.935167e+01 5.217373e-03 4.427760e-01 6.079020e-01 7.741789e-01 9.143472e-01 1.714548e+00 1.234623e+00 1.675018e+00 1.363413e+00 1.157202e+00 1.418188e+00 1.795391e+00 1.950892e+00 7.763592e-05 8.172148e-02 8.633181e-02 1.654325e-01 2.062691e-01 2.351768e-01 1.974912e-01 2.003742e-01 2.394263e-01 1.834996e-01 3.098183e-01 3.081339e-01 4.377296e-01 1.382657e-05
<GCONST> 6.750225e+01
<STATE> 8
<NUMMIXES> 6
<MIXTURE> 1 3.318139e-02
<MEAN> 39
 1.106395e+00 6.376556e+00 -5.534883e+00 1.084694e+00 -4.173491e+00 -3.212476e+00 -3.931517e+00 -7.336650e+00 2.884409e+00 2.507547e+00 4.289135e+00 5.994287e+00 8.276805e-01 1.556546e+00 2.283302e-01 4.835415e-01 7.343531e-01 1.468507e+00 1.727231e+00 1.424740e-01 6.166896e-01 1.313001e+00 2.363466e+00 1.963330e+00 7.667004e-01 -6.126347e-03 2.439016e-02 -4.046764e-03 2.217872e-01 -8.495745e-02 4.656067e-02 -2.288473e-01 -7.610544e-02 4.843510e-01 -1.092048e-01 -3.023021e-01 -3.743836e-02 1.543283e-01 -2.778513e-03
<VARIANCE> 39
 2.495752e+01 4.307475e+01 1.285209e+01 1.779685e+01 1.800035e+01 4.715871e+01 4.388261e+01 1.374377e+01 3.513276e+01 7.076498e+01 7.755032e+01 7.695773e+01 1.845409e-02 5.352147e-01 4.905265e-01 7.849950e-01 2.540015e-01 9.562732e-01 1.532306e+00 1.447138e+00 1.368001e+00 8.805338e-01 2.534254e+00 4.594117e+00 3.003608e+00 3.592543e-04 1.658015e-01 1.222937e-01 1.549592e-01 2.069019e-01 2.910783e-01 4.905350e-01 2.221957e-01 2.054119e-01 3.491929e-01 5.810866e-01 4.677400e-01 1.733638e-01 2.319618e-05
<GCONST> 7.621655e+01
<MIXTURE> 2 1.111608e-01
<MEAN> 39
 -1.127591e+00 1.115634e+01 -6.308136e+00 -4.128063e+00 -7.790585e+00 -1.036133e+01 -4.955567e+00 -4.629563e+00 -4.902128e+00 -4.138764e+00 -5.900729e+00 -1.830098e+00 8.705516e-01 1.048785e-01 -2.863507e-01 7.295003e-01 -8.294785e-01 1.128575e+00 -1.500997e-01 7.796872e-01 4.897421e-01 3.285067e-01 -4.723706e-02 1.009124e+00 -3.255492e-01 -1.206675e-02 3.422657e-01 -2.155017e-03 6.626208e-01 2.594600e-01 5.820912e-01 6.209428e-01 3.025091e-01 4.782930e-01 3.625324e-01 3.954564e-01 3.740159e-01 2.133144e-01 -6.842391e-03
<VARIANCE> 39
 1.987884e+01 3.260777e+01 2.019682e+01 2.579668e+01 1.771302e+01 2.793380e+01 2.875220e+01 3.616556e+01 2.508026e+01 2.302030e+01 2.758464e+01 4.481489e+01 5.879373e-03 7.033262e-01 6.915398e-01 1.258188e+00 2.129239e+00 1.505068e+00 2.176264e+00 2.892757e+00 1.629999e+00 2.468815e+00 1.646464e+00 1.981645e+00 1.791763e+00 1.356852e-04 9.729327e-02 1.567157e-01 2.374706e-01 2.926861e-01 2.483007e-01 2.960198e-01 4.348771e-01 4.767188e-01 3.841322e-01 4.029011e-01 3.360883e-01 3.610029e-01 3.397432e-05
<GCONST> 7.736765e+01
<MIXTURE> 3 3.721465e-01
<MEAN> 39
 -1.357558e+00 1.445867e+01 4.214708e-01 -3.850541e+00 -3.181387e+00 -6.059012e+00 -8.892520e+00 -1.258310e-01 1.144322e+00 -3.223289e+00 3.744810e+00 -3.317971e+00 8.602175e-01 2.929099e-01 -8.459076e-01 5.176052e-01 -9.337022e-01 7.709975e-01 -8.422077e-02 8.338283e-01 3.153923e-01 4.039721e-01 4.347839e-01 -5.527505e-01 3.420492e-01 -1.039084e-02 2.228668e-01 -2.706971e-01 1.890344e-01 1.277862e-01 7.710028e-02 3.960846e-01 3.018864e-01 1.220039e-01 -1.632909e-01 6.883146e-02 -2.729744e-01 4.643345e-02 -6.193671e-03
<VARIANCE> 39
 1.207878e+01 3.052307e+01 1.496746e+01 2.399106e+01 1.790026e+01 2.362646e+01 2.765357e+01 2.276353e+01 3.036168e+01 2.666378e+01 2.171657e+01 1.671732e+01 5.728121e-03 5.902917e-01 8.486692e-01 1.132577e+00 2.006748e+00 1.126236e+00 1.231139e+00 1.405576e+00 1.531466e+00 1.417544e+00 1.757942e+00 1.288987e+00 1.630130e+00 2.056871e-04 6.432669e-02 1.359300e-01 1.587823e-01 2.158110e-01 1.993135e-01 2.042234e-01 2.862639e-01 2.634492e-01 3.032306e-01 2.273348e-01 2.385566e-01 1.990201e-01 3.244549e-05
<GCONST> 6.782401e+01
<MIXTURE> 4 1.229543e-01
<MEAN> 39
 -3.646868e+00 1.100555e+01 -5.759235e+00 -3.044894e+00 -5.915544e+00 -6.331442e+00 8.532556e-01 -1.423239e+00 5.623210e+00 8.632690e+00 1.192479e+01 1.356082e+01 9.203249e-01 -3.775307e-01 -7.178036e-01 1.482843e-01 -1.236405e+00 5.498739e-01 -9.783220e-01 -1.943357e-03 -1.664448e-01 -4.466531e-01 -7.380717e-02 -5.660644e-01 -7.924462e-01 -1.120815e-02 3.613381e-01 -2.738172e-01 3.160308e-01 -2.508259e-02 1.298703e-01 1.856228e-01 -2.347347e-01 1.332005e-01 -3.465211e-01 -5.313867e-01 -6.933439e-01 -7.184276e-01 -8.877725e-03
<VARIANCE> 39
 1.942764e+01 1.787868e+01 2.597967e+01 1.554910e+01 4.678035e+01 2.271243e+01 2.906759e+01 2.675374e+01 5.706100e+01 6.445029e+01 6.657023e+01 8.820126e+01 3.730889e-03 1.076961e+00 8.894489e-01 1.664458e+00 1.789363e+00 2.711020e+00 1.442965e+00 2.222882e+00 1.639605e+00 1.154851e+00 2.100597e+00 3.092662e+00 2.772410e+00 2.014551e-04 1.288333e-01 2.309060e-01 3.598709e-01 2.067604e-01 3.712005e-01 2.811003e-01 4.694890e-01 2.822832e-01 3.362199e-01 5.306338e-01 3.265142e-01 6.216376e-01 3.620858e-05
<GCONST> 8.274216e+01
<MIXTURE> 5 1.111436e-01
<MEAN> 39
 -1.126749e+00 1.115612e+01 -6.308436e+00 -4.126945e+00 -7.790119e+00 -1.036055e+01 -4.955218e+00 -4.629531e+00 -4.901182e+00 -4.139052e+00 -5.900370e+00 -1.829332e+00 8.705438e-01 1.048874e-01 -2.863286e-01 7.295007e-01 -8.294954e-01 1.128574e+00 -1.503487e-01 7.796922e-01 4.898086e-01 3.284467e-01 -4.718219e-02 1.009043e+00 -3.254145e-01 -1.206575e-02 3.422101e-01 -2.182275e-03 6.626208e-01 2.593606e-01 5.820271e-01 6.208609e-01 3.024823e-01 4.782521e-01 3.624727e-01 3.954823e-01 3.739730e-01 2.132520e-01 -6.841170e-03
<VARIANCE> 39
 1.988297e+01 3.261350e+01 2.019977e+01 2.579836e+01 1.771561e+01 2.793304e+01 2.875731e+01 3.616890e+01 2.508273e+01 2.302061e+01 2.758726e+01 4.481443e+01 5.879764e-03 7.034748e-01 6.916121e-01 1.258323e+00 2.129606e+00 1.505398e+00 2.176765e+00 2.893079e+00 1.630123e+00 2.469044e+00 1.646629e+00 1.982049e+00 1.791835e+00 1.356854e-04 9.729344e-02 1.567520e-01 2.374890e-01 2.926995e-01 2.483316e-01 2.960322e-01 4.349457e-01 4.767832e-01 3.842008e-01 4.029661e-01 3.361016e-01 3.610145e-01 3.397003e-05
<GCONST> 7.737168e+01
<MIXTURE> 6 2.494124e-01
<MEAN> 39
 2.940304e+00 1.174748e+01 -4.582848e+00 -1.100790e-01 -2.981432e+00 -5.572740e+00 -1.613269e+00 -1.561979e+00 4.302609e-01 -4.620500e-01 -3.043418e+00 2.921342e+00 8.321470e-01 2.772749e-01 -7.517621e-01 5.209689e-01 -3.391631e-01 4.684078e-01 -3.142756e-01 -2.759233e-01 -6.259698e-02 -1.625398e-01 -1.584714e-01 1.662954e-01 -2.292025e-01 -1.177827e-02 -6.122583e-02 -1.784713e-01 3.276493e-01 -1.653886e-02 -7.438198e-02 3.297612e-03 -1.724202e-01 -9.028137e-02 -2.485583e-01 -1.869041e-01 -5.002704e-02 -2.897642e-01 -5.143665e-03
<VARIANCE> 39
 2.062480e+01 3.696679e+01 2.429795e+01 1.734223e+01 2.033636e+01 2.350907e+01 1.579970e+01 1.530481e+01 2.729342e+01 3.572853e+01 3.969846e+01 2.699784e+01 8.907010e-03 5.663530e-01 6.107309e-01 9.402849e-01 2.154664e+00 1.702415e+00 1.679143e+00 1.638632e+00 1.903333e+00 2.099288e+00 1.825813e+00 1.848470e+00 2.307415e+00 1.244743e-04 1.021125e-01 1.045002e-01 1.351619e-01 1.724834e-01 2.466002e-01 2.502027e-01 2.244374e-01 2.896097e-01 3.082634e-01 3.533631e-01 3.708679e-01 2.581144e-01 2.122552e-05
<GCONST> 7.164743e+01
<STATE> 9
<NUMMIXES> 6
<MIXTURE> 1 1.162292e-01
<MEAN> 39
 -3.290703e+00 1.368232e+01 -6.034504e+00 -6.866515e+00 -3.471792e+00 -1.240168e+01 2.078025e+00 -2.619759e+00 -2.842425e-01 -2.532810e+00 -3.776037e+00 3.306604e-01 8.704428e-01 2.080438e-01 -1.631546e+00 1.565175e+00 -2.749663e+00 2.376589e+00 3.302522e-01 1.835300e+00 2.388331e+00 1.040921e+00 8.164190e-01 7.884539e-01 -9.370541e-01 -1.372325e-02 4.176169e-01 -5.647026e-01 5.142921e-01 3.513314e-01 -3.342681e-02 1.277061e+00 -3.164516e-01 4.399524e-01 -2.137124e-01 4.401524e-02 1.529088e-01 1.634373e-01 -7.151468e-03
<VARIANCE> 39
 7.740476e+00 2.951283e+01 9.020915e+00 1.983215e+01 1.702713e+01 1.984921e+01 2.214748e+01 3.380058e+01 2.727010e+01 1.767402e+01 2.200988e+01 2.915727e+01 4.059688e-03 7.960112e-01 1.331280e+00 2.631849e+00 1.383081e+00 1.504700e+00 2.808048e+00 3.392633e+00 2.901696e+00 3.157845e+00 2.355220e+00 1.517099e+00 2.422003e+00 2.214051e-04 1.256248e-01 3.174721e-01 2.006745e-01 3.645384e-01 6.892251e-01 2.303793e-01 5.066022e-01 4.662566e-01 4.761679e-01 4.524638e-01 3.347177e-01 3.817669e-01 7.042866e-05
<GCONST> 7.956872e+01
<MIXTURE> 2 1.063804e-01
<MEAN> 39
 9.640028e-01 1.087300e+01 -3.884900e+00 -3.170927e+00 -3.859197e+00 -8.336321e+00 -4.236652e+00 -1.155538e+00 -3.091684e+00 -2.141539e+00 -3.720536e+00 -3.478054e+00 8.378864e-01 7.770413e-01 -2.277766e-01 1.338861e+00 4.185404e-01 1.470696e+00 8.556719e-01 4.435974e-01 3.275972e-01 5.681661e-01 1.419522e-01 1.082340e+00 -1.939191e-01 -2.130979e-02 5.547855e-02 -1.358265e-02 5.355698e-01 5.222900e-01 2.117492e-01 5.560174e-01 5.366035e-02 -8.932369e-02 9.207181e-02 1.117606e-01 1.540267e-01 3.778652e-01 -9.616346e-03
<VARIANCE> 39
 2.630747e+01 3.650378e+01 1.759182e+01 3.669671e+01 2.257333e+01 2.729386e+01 3.119671e+01 4.120862e+01 3.002791e+01 2.782570e+01 2.973878e+01 3.073047e+01 7.327216e-03 7.628080e-01 6.493909e-01 1.775624e+00 1.518117e+00 1.475175e+00 1.946872e+00 2.742260e+00 2.405990e+00 3.034373e+00 2.145556e+00 2.970755e+00 3.057235e+00 3.188091e-04 1.564138e-01 1.595149e-01 2.429094e-01 2.730639e-01 2.870612e-01 3.644117e-01 4.380231e-01 4.374012e-01 3.849967e-01 4.529748e-01 3.232182e-01 3.211808e-01 5.701098e-05
<GCONST> 8.238855e+01
<MIXTURE> 3 3.752208e-01
<MEAN> 39
 -5.508004e-01 1.279077e+01 1.939422e+00 -4.944240e+00 -2.666967e+00 -5.240167e+00 -7.782129e+00 3.869099e-01 3.769885e-01 -2.736631e+00 3.264240e+00 -2.765499e+00 8.379944e-01 7.493757e-01 -1.003640e+00 8.104819e-01 -3.427451e-01 6.936575e-01 6.789386e-01 1.142999e+00 3.467373e-01 1.828862e-01 4.864969e-01 -7.260816e-01 3.169694e-01 -2.308995e-02 1.008029e-01 -1.355312e-01 6.089464e-02 5.877219e-01 1.172936e-01 4.725602e-01 2.872080e-01 -2.617592e-02 -1.564734e-01 -2.120084e-02 -1.986004e-01 -1.516868e-02 -9.463107e-03
<VARIANCE> 39
 1.228236e+01 3.467475e+01 1.570915e+01 3.253459e+01 1.706332e+01 1.722394e+01 2.483655e+01 2.084650e+01 2.763050e+01 2.565759e+01 2.229856e+01 1.689138e+01 6.625748e-03 5.575448e-01 1.302538e+00 1.573734e+00 1.896101e+00 1.412542e+00 1.308302e+00 2.232208e+00 1.865066e+00 1.955061e+00 1.935254e+00 1.867244e+00 1.959011e+00 2.255112e-04 9.578865e-02 1.588642e-01 1.580058e-01 2.721131e-01 2.423960e-01 2.490969e-01 2.219635e-01 2.820119e-01 2.850139e-01 2.577690e-01 2.867980e-01 2.180113e-01 5.530993e-05
<GCONST> 7.232738e+01
<MIXTURE> 4 1.200456e-01
<MEAN> 39
 -4.784157e+00 9.672489e+00 -4.785254e+00 -6.942741e+00 -4.041613e+00 -9.313379e+00 -2.706869e-01 -4.404782e-01 4.609461e+00 7.041850e+00 7.636512e+00 8.952956e+00 8.917810e-01 5.706064e-01 -1.508383e+00 1.042829e+00 -1.476799e+00 1.036076e+00 2.014079e-01 -3.800575e-01 4.137447e-01 -1.249675e+00 -9.964589e-01 -1.728320e+00 -1.781529e+00 -2.000592e-02 4.996552e-01 -2.298171e-01 5.419693e-01 5.454744e-01 -9.601989e-02 8.915519e-01 -1.224752e-01 -7.307097e-02 -3.532992e-01 -6.516991e-01 -4.224421e-01 -4.516616e-01 -1.110202e-02
<VARIANCE> 39
 2.048729e+01 1.865431e+01 4.087512e+01 1.270554e+01 3.523982e+01 2.581151e+01 4.974024e+01 4.676080e+01 6.498233e+01 7.942918e+01 4.209533e+01 1.186972e+02 5.506864e-03 1.127100e+00 1.798587e+00 1.807616e+00 2.568965e+00 2.556998e+00 2.335584e+00 2.519408e+00 2.038095e+00 3.140332e+00 6.603775e+00 4.663886e+00 4.872629e+00 4.399285e-04 1.625712e-01 3.370284e-01 3.481287e-01 2.276446e-01 7.708486e-01 3.637877e-01 6.513656e-01 4.567503e-01 6.019977e-01 6.599993e-01 3.053297e-01 8.163985e-01 1.259172e-04
<GCONST> 9.518085e+01
<MIXTURE> 5 1.063796e-01
<MEAN> 39
 9.642373e-01 1.087278e+01 -3.885235e+00 -3.170375e+00 -3.859155e+00 -8.336081e+00 -4.236118e+00 -1.155195e+00 -3.091563e+00 -2.141297e+00 -3.720374e+00 -3.477811e+00 8.378854e-01 7.770819e-01 -2.277838e-01 1.338822e+00 4.184779e-01 1.470661e+00 8.555838e-01 4.436465e-01 3.275620e-01 5.681472e-01 1.419961e-01 1.082308e+00 -1.940039e-01 -2.130837e-02 5.548130e-02 -1.358354e-02 5.355930e-01 5.222372e-01 2.117533e-01 5.559943e-01 5.359414e-02 -8.937457e-02 9.203900e-02 1.117428e-01 1.540080e-01 3.778537e-01 -9.615548e-03
<VARIANCE> 39
 2.630768e+01 3.650593e+01 1.758854e+01 3.669379e+01 2.257234e+01 2.729709e+01 3.119668e+01 4.120996e+01 3.002705e+01 2.782623e+01 2.973930e+01 3.072927e+01 7.328065e-03 7.627501e-01 6.493647e-01 1.775687e+00 1.517899e+00 1.475225e+00 1.946500e+00 2.742271e+00 2.405971e+00 3.034399e+00 2.145586e+00 2.970835e+00 3.056873e+00 3.188428e-04 1.564094e-01 1.595192e-01 2.428728e-01 2.730242e-01 2.870518e-01 3.644291e-01 4.379945e-01 4.373768e-01 3.849865e-01 4.529765e-01 3.232107e-01 3.211751e-01 5.699454e-05
<GCONST> 8.238745e+01
<MIXTURE> 6 1.757433e-01
<MEAN> 39
 2.186789e+00 9.868286e+00 -2.837438e+00 -9.169543e-01 -2.071459e+00 -6.239986e+00 -1.881591e+00 -2.624702e+00 -9.918987e-01 3.327413e-01 -1.594322e+00 3.229272e+00 8.293029e-01 2.581488e-01 -7.921314e-01 1.194233e+00 -4.567695e-01 4.544302e-01 -2.208603e-01 -4.601022e-01 -1.441676e-01 -5.967871e-01 -3.234346e-01 -1.800564e-01 -7.894245e-01 -2.257819e-02 -6.644760e-02 -1.083577e-01 3.864894e-01 2.867648e-01 -4.215484e-02 3.611917e-01 -1.249578e-01 9.325844e-02 -4.506550e-02 -1.212007e-01 -6.948499e-02 -3.117116e-01 -9.571968e-03
<VARIANCE> 39
 1.794644e+01 4.385730e+01 1.673415e+01 2.403411e+01 2.772968e+01 3.293706e+01 2.145500e+01 2.498117e+01 2.008046e+01 2.352442e+01 3.517626e+01 2.955198e+01 1.025677e-02 7.913779e-01 6.508955e-01 1.446515e+00 2.052533e+00 1.578911e+00 1.237400e+00 1.890484e+00 2.488965e+00 1.485335e+00 2.334156e+00 2.416842e+00 2.546890e+00 1.399443e-04 1.212486e-01 1.295701e-01 1.657819e-01 2.662916e-01 2.970106e-01 4.014947e-01 3.336287e-01 3.475925e-01 3.309943e-01 3.132344e-01 3.783332e-01 3.056062e-01 4.840922e-05
<GCONST> 7.688338e+01
<STATE> 10
<MEAN> 39
 3.836989e-01 1.033523e+01 -9.140535e-02 -5.016723e+00 -1.783957e+00 -6.444667e+00 -3.391090e+00 -3.871080e-01 -1.907104e-01 -7.096561e-01 2.775624e-01 -7.597672e-01 8.221650e-01 7.763278e-01 -1.017407e+00 1.527922e+00 2.888434e-01 9.381841e-01 1.371246e+00 5.314133e-01 3.673317e-01 -8.177513e-02 -3.894635e-02 -3.531494e-01 -3.192384e-01 -3.371666e-02 -1.195065e-01 -1.423004e-01 7.658084e-02 7.489707e-01 -4.316318e-02 5.398594e-01 5.460548e-02 -5.957713e-02 -7.231666e-02 -4.844736e-02 3.640854e-02 1.193518e-01 -1.221756e-02
<VARIANCE> 39
 2.129177e+01 3.453165e+01 2.521580e+01 4.490916e+01 2.409958e+01 3.046618e+01 3.866735e+01 3.289141e+01 3.507300e+01 3.587600e+01 3.441512e+01 4.122347e+01 8.009901e-03 1.007198e+00 1.834556e+00 2.257789e+00 2.612624e+00 2.280983e+00 2.368576e+00 3.298656e+00 2.904501e+00 2.786629e+00 3.301646e+00 3.691112e+00 3.649487e+00 4.917496e-04 2.010975e-01 2.524273e-01 2.411269e-01 4.451590e-01 5.055402e-01 4.233223e-01 4.561089e-01 4.815821e-01 4.446199e-01 4.387285e-01 3.804272e-01 4.162952e-01 1.357712e-04
<GCONST> 9.151051e+01
<STATE> 11
<MEAN> 39
 2.260397e+00 9.563660e+00 1.749748e+00 -3.480235e+00 -5.769475e-01 -3.877491e+00 -3.270767e+00 4.457971e-02 -2.967038e-01 -8.798044e-01 -3.355303e-01 -1.294807e+00 7.650838e-01 3.462929e-01 -1.011301e+00 1.420665e+00 1.388827e+00 7.850700e-01 1.678823e+00 4.361405e-01 -6.512801e-02 -2.196503e-01 -2.747812e-01 -2.334291e-01 -9.335215e-02 -4.551618e-02 -4.348293e-01 -1.867398e-01 -2.485572e-01 5.239492e-01 -6.548551e-02 1.446228e-01 9.013220e-02 -6.272412e-03 6.913912e-02 5.599011e-02 1.611697e-01 1.966997e-01 -1.232152e-02
<VARIANCE> 39
 2.148575e+01 3.676013e+01 2.855824e+01 5.680973e+01 2.769378e+01 2.851107e+01 3.905545e+01 3.629339e+01 3.425426e+01 3.345992e+01 3.403816e+01 3.732166e+01 1.208977e-02 1.237332e+00 2.318384e+00 2.090388e+00 2.485526e+00 3.229835e+00 3.387030e+00 3.276764e+00 2.913779e+00 2.603679e+00 3.288615e+00 3.522468e+00 3.288368e+00 1.014150e-03 2.832673e-01 2.436754e-01 4.332869e-01 6.295630e-01 4.403908e-01 4.746536e-01 5.308975e-01 6.425939e-01 5.288646e-01 5.510514e-01 5.158700e-01 5.226774e-01 2.256068e-04
<GCONST> 9.694479e+01
<STATE> 12
<MEAN> 39
 1.904994e+00 8.385744e+00 3.818315e+00 -1.068624e+00 -3.101057e-01 -1.531231e+00 -2.696363e+00 -9.205703e-01 -9.524152e-01 -1.971719e+00 -7.791119e-01 -1.175171e+00 7.114430e-01 -4.211867e-01 -1.367762e+00 8.627053e-01 1.914392e+00 7.475841e-01 1.763954e+00 7.754926e-01 1.717366e-01 -2.456431e-02 7.809402e-02 1.737510e-01 2.612376e-01 -6.425936e-02 -5.663778e-01 -2.728934e-01 -6.139391e-01 7.507735e-02 -5.286536e-02 -1.750347e-01 1.815450e-01 2.613617e-01 3.103755e-01 3.262763e-01 2.724823e-01 2.105266e-01 -1.067527e-02
<VARIANCE> 39
 1.963241e+01 4.548976e+01 2.756251e+01 5.739085e+01 3.190106e+01 3.235742e+01 4.135894e+01 4.016675e+01 3.793328e+01 3.284293e+01 3.647189e+01 3.519271e+01 1.487146e-02 1.685571e+00 2.600436e+00 1.837542e+00 2.649667e+00 3.611243e+00 3.318521e+00 2.964352e+00 2.901679e+00 2.703381e+00 3.050892e+00 2.875806e+00 2.775324e+00 2.272303e-03 3.488829e-01 3.209935e-01 4.798088e-01 6.882225e-01 5.113175e-01 7.303516e-01 6.794482e-01 7.999080e-01 6.595480e-01 6.274373e-01 6.161067e-01 6.283007e-01 3.278563e-04
<GCONST> 1.013195e+02
<STATE> 13
<MEAN> 39
 6.130219e-01 6.636845e+00 4.272062e+00 1.205211e+00 6.353938e-01 2.052930e-01 -1.648270e+00 -6.750175e-01 -1.082820e+00 -1.520172e+00 -9.238621e-02 -5.012932e-01 6.415660e-01 -1.180919e+00 -1.866925e+00 -1.085342e-01 1.535714e+00 7.089617e-01 1.223320e+00 1.048342e+00 7.281213e-01 5.466567e-01 6.273854e-01 5.414888e-01 5.225536e-01 -7.721858e-02 -3.704798e-01 -1.575650e-01 -6.619610e-01 -3.568436e-01 -5.826384e-02 -3.708011e-01 1.211984e-01 2.955559e-01 3.689833e-01 3.530937e-01 1.533213e-01 6.773786e-02 -1.839550e-03
<VARIANCE> 39
 1.783001e+01 5.473179e+01 2.768565e+01 5.771830e+01 4.601616e+01 4.070341e+01 4.615989e+01 3.777339e+01 3.738471e+01 3.898286e+01 4.099894e+01 3.409478e+01 2.541598e-02 2.689748e+00 2.253890e+00 2.307534e+00 3.374383e+00 2.814447e+00 3.993470e+00 2.968570e+00 3.985313e+00 3.308597e+00 2.943771e+00 2.957521e+00 3.113767e+00 4.224475e-03 2.310487e-01 4.596317e-01 4.395775e-01 6.034333e-01 8.170896e-01 7.981213e-01 8.123389e-01 7.120843e-01 6.575688e-01 7.111171e-01 6.745792e-01 6.195955e-01 3.571082e-04
<GCONST> 1.054505e+02
<STATE> 14
<MEAN> 39
 -1.332339e+00 4.299006e+00 3.495609e+00 2.353269e+00 1.255679e+00 9.726251e-01 -3.211485e-01 8.766916e-01 2.080289e-01 -1.529275e-01 1.129895e+00 2.773060e-01 5.309504e-01 -1.353133e+00 -2.042110e+00 -7.797504e-01 7.596907e-01 6.511396e-01 7.453594e-01 1.071272e+00 1.144188e+00 1.047467e+00 1.064428e+00 5.601659e-01 4.193144e-01 -7.163728e-02 -9.184576e-03 1.268764e-01 -3.915294e-01 -4.932320e-01 -4.979871e-02 -2.914892e-01 -1.223896e-02 9.269489e-02 1.778664e-01 1.586621e-01 -6.054186e-02 -1.046284e-01 1.259390e-02
<VARIANCE> 39
 2.327813e+01 5.448690e+01 2.638805e+01 5.194761e+01 4.762400e+01 4.624132e+01 4.415951e+01 3.322159e+01 3.642622e+01 3.724480e+01 4.130669e+01 3.271032e+01 5.443029e-02 2.908855e+00 2.497381e+00 3.088046e+00 3.724739e+00 3.243305e+00 5.216456e+00 4.021921e+00 4.752963e+00 3.995865e+00 3.362751e+00 3.597196e+00 3.770998e+00 5.490038e-03 1.642509e-01 4.625711e-01 3.760273e-01 5.739210e-01 7.562397e-01 6.192411e-01 7.371288e-01 5.297611e-01 5.246382e-01 6.099365e-01 5.924229e-01 4.761320e-01 4.769412e-04
<GCONST> 1.068871e+02
<TRANSP> 15
 0.000000e+00 1.000000e+00 0.000000e+00 0.000000e+00 0.000000e+00 0.000000e+00 0.000000e+00 0.000000e+00 0.000000e+00 0.000000e+00 0.000000e+00 0.000000e+00 0.000000e+00 0.000000e+00 0.000000e+00
 0.000000e+00 6.553494e-01 3.446505e-01 0.000000e+00 0.000000e+00 0.000000e+00 0.000000e+00 0.000000e+00 0.000000e+00 0.000000e+00 0.000000e+00 0.000000e+00 0.000000e+00 0.000000e+00 0.000000e+00
 0.000000e+00 0.000000e+00 6.340283e-01 3.659717e-01 0.000000e+00 0.000000e+00 0.000000e+00 0.000000e+00 0.000000e+00 0.000000e+00 0.000000e+00 0.000000e+00 0.000000e+00 0.000000e+00 0.000000e+00
 0.000000e+00 0.000000e+00 0.000000e+00 7.859071e-01 2.140930e-01 0.000000e+00 0.000000e+00 0.000000e+00 0.000000e+00 0.000000e+00 0.000000e+00 0.000000e+00 0.000000e+00 0.000000e+00 0.000000e+00
 0.000000e+00 0.000000e+00 0.000000e+00 0.000000e+00 7.094368e-01 2.905633e-01 0.000000e+00 0.000000e+00 0.000000e+00 0.000000e+00 0.000000e+00 0.000000e+00 0.000000e+00 0.000000e+00 0.000000e+00
 0.000000e+00 0.000000e+00 0.000000e+00 0.000000e+00 0.000000e+00 5.678971e-01 4.321029e-01 0.000000e+00 0.000000e+00 0.000000e+00 0.000000e+00 0.000000e+00 0.000000e+00 0.000000e+00 0.000000e+00
 0.000000e+00 0.000000e+00 0.000000e+00 0.000000e+00 0.000000e+00 0.000000e+00 1.724762e-01 8.275238e-01 0.000000e+00 0.000000e+00 0.000000e+00 0.000000e+00 0.000000e+00 0.000000e+00 0.000000e+00
 0.000000e+00 0.000000e+00 0.000000e+00 0.000000e+00 0.000000e+00 0.000000e+00 0.000000e+00 2.483989e-01 7.516011e-01 0.000000e+00 0.000000e+00 0.000000e+00 0.000000e+00 0.000000e+00 0.000000e+00
 0.000000e+00 0.000000e+00 0.000000e+00 0.000000e+00 0.000000e+00 0.000000e+00 0.000000e+00 0.000000e+00 1.047595e-01 8.952405e-01 0.000000e+00 0.000000e+00 0.000000e+00 0.000000e+00 0.000000e+00
 0.000000e+00 0.000000e+00 0.000000e+00 0.000000e+00 0.000000e+00 0.000000e+00 0.000000e+00 0.000000e+00 0.000000e+00 4.060410e-03 9.959396e-01 0.000000e+00 0.000000e+00 0.000000e+00 0.000000e+00
 0.000000e+00 0.000000e+00 0.000000e+00 0.000000e+00 0.000000e+00 0.000000e+00 0.000000e+00 0.000000e+00 0.000000e+00 0.000000e+00 1.792195e-01 8.207806e-01 0.000000e+00 0.000000e+00 0.000000e+00
 0.000000e+00 0.000000e+00 0.000000e+00 0.000000e+00 0.000000e+00 0.000000e+00 0.000000e+00 0.000000e+00 0.000000e+00 0.000000e+00 0.000000e+00 6.031514e-02 9.396849e-01 0.000000e+00 0.000000e+00
 0.000000e+00 0.000000e+00 0.000000e+00 0.000000e+00 0.000000e+00 0.000000e+00 0.000000e+00 0.000000e+00 0.000000e+00 0.000000e+00 0.000000e+00 0.000000e+00 1.170304e-02 9.882970e-01 0.000000e+00
 0.000000e+00 0.000000e+00 0.000000e+00 0.000000e+00 0.000000e+00 0.000000e+00 0.000000e+00 0.000000e+00 0.000000e+00 0.000000e+00 0.000000e+00 0.000000e+00 0.000000e+00 8.284932e-02 9.171507e-01
 0.000000e+00 0.000000e+00 0.000000e+00 0.000000e+00 0.000000e+00 0.000000e+00 0.000000e+00 0.000000e+00 0.000000e+00 0.000000e+00 0.000000e+00 0.000000e+00 0.000000e+00 0.000000e+00 0.000000e+00
<ENDHMM>
~h "#u"
<BEGINHMM>
<NUMSTATES> 15
<STATE> 2
<NUMMIXES> 6
<MIXTURE> 1 1.697230e-01
<MEAN> 39
 5.847656e+00 -6.040592e+00 -4.514472e+00 3.725478e+00 -4.469739e+00 -1.184525e+01 -1.121265e+00 6.057936e+00 -3.444528e-01 -2.545081e+00 -2.398508e+00 -3.883339e-01 8.798910e-01 1.824499e+00 3.689252e-01 -2.202239e+00 6.615641e-01 3.142890e+00 -2.714195e-01 -2.829149e+00 3.018887e-01 1.853338e+00 6.113325e-01 -5.401750e-01 -5.151683e-01 -9.299980e-03 -1.671143e-01 5.135154e-01 2.661180e-01 -1.092432e+00 2.211382e-01 1.338131e+00 -2.318717e-01 -1.191769e+00 1.174461e-01 6.832047e-01 8.998944e-02 -2.643500e-01 1.240160e-05
<VARIANCE> 39
 1.410275e+01 2.451717e+01 2.429128e+01 1.934291e+01 3.306875e+01 2.675258e+01 5.322701e+01 4.272734e+01 3.553698e+01 4.136568e+01 5.159422e+01 5.455219e+01 6.413590e-03 4.475368e-01 7.584516e-01 1.595142e+00 2.860570e+00 1.932277e+00 4.457384e+00 2.730803e+00 4.629357e+00 2.471298e+00 2.915784e+00 1.957120e+00 3.344826e+00 1.480913e-04 8.546443e-02 1.719967e-01 2.480996e-01 4.282100e-01 6.238206e-01 3.791155e-01 1.029969e+00 5.200918e-01 8.166121e-01 4.425682e-01 5.289773e-01 5.191314e-01 1.786530e-05
<GCONST> 8.676929e+01
<MIXTURE> 2 1.197270e-01
<MEAN> 39
 9.609907e+00 -3.190167e+00 -9.651361e+00 7.422874e-01 3.607250e+00 -4.886015e+00 -6.443342e+00 -1.435545e-01 3.580519e+00 3.941716e+00 -2.954519e+00 -4.326571e+00 8.590412e-01 1.080933e+00 1.052672e+00 -4.747895e-01 -1.183351e+00 9.328989e-01 2.116753e+00 -1.543624e-01 -1.891990e+00 -3.215571e-01 1.715218e+00 1.366299e+00 -2.827419e-01 -8.060384e-03 -2.382379e-01 -2.953099e-02 4.214017e-01 -1.549093e-01 -6.984098e-01 8.614898e-02 8.173921e-01 5.414972e-02 -7.898912e-01 -4.615690e-01 3.172062e-01 4.154897e-01 1.180817e-04
<VARIANCE> 39
 1.341660e+01 2.392917e+01 2.516385e+01 2.016426e+01 2.361347e+01 3.520902e+01 3.286662e+01 3.618620e+01 2.970992e+01 3.448756e+01 3.883665e+01 3.545781e+01 6.750728e-03 3.434298e-01 5.182372e-01 1.121009e+00 1.417128e+00 2.469449e+00 2.262645e+00 2.922836e+00 2.407580e+00 2.865993e+00 2.446881e+00 2.568299e+00 2.997254e+00 1.579217e-04 5.486790e-02 1.085849e-01 2.080478e-01 2.791829e-01 3.392083e-01 4.949623e-01 4.802698e-01 4.916417e-01 3.863195e-01 5.047339e-01 4.691890e-01 3.764662e-01 1.813317e-05
<GCONST> 7.880477e+01
<MIXTURE> 3 2.915071e-01
<MEAN> 39
 1.113849e+01 2.659294e+00 -7.780196e+00 -4.021372e+00 2.651741e+00 9.474245e-02 -1.268930e+00 -5.993182e-01 -7.738461e-01 4.379659e+00 2.962429e+00 4.606937e-01 7.408481e-01 5.007110e-01 4.296758e-01 -6.658558e-01 -6.634289e-02 -5.191787e-02 9.730542e-02 1.186655e-01 -1.728496e-01 -4.548832e-01 1.511367e-01 4.990029e-01 4.256836e-01 3.418855e-02 -3.479000e-01 -1.770524e-01 2.482402e-01 1.960962e-01 -8.194968e-02 -7.829148e-02 7.966436e-02 -2.562990e-02 6.317212e-02 -3.071042e-01 -2.370295e-01 -2.091672e-02 -9.116911e-03
<VARIANCE> 39
 2.132636e+01 2.905366e+01 2.747665e+01 2.486402e+01 2.431572e+01 2.499044e+01 3.480435e+01 2.537607e+01 3.196350e+01 2.415351e+01 3.134075e+01 2.393047e+01 1.335605e-02 8.636790e-01 7.988563e-01 1.645983e+00 1.343338e+00 1.482529e+00 1.683241e+00 1.817955e+00 2.209761e+00 1.995296e+00 2.092161e+00 2.157910e+00 2.313970e+00 9.832106e-04 2.230717e-01 1.303387e-01 3.529060e-01 2.698495e-01 2.279793e-01 2.862609e-01 3.769911e-01 3.872653e-01 4.008387e-01 3.128881e-01 3.841665e-01 4.535157e-01 3.138666e-04
<GCONST> 8.318645e+01
<MIXTURE> 4 1.374319e-01
<MEAN> 39
 3.902793e+00 -5.037727e+00 -3.913244e+00 -2.460872e+00 -6.311076e+00 -1.737779e+00 8.614340e-01 -4.880540e+00 -3.598618e+00 -1.465488e+00 1.162110e+00 1.141507e+00 9.020835e-01 1.160488e+00 -2.187310e-01 -1.130831e+00 1.025150e+00 -1.528933e-01 -1.404673e+00 1.130530e+00 9.686376e-01 -6.657502e-01 -7.965609e-01 -6.035469e-01 -1.268729e+00 -3.530846e-03 1.389572e-01 2.683846e-01 -1.533388e-01 3.905080e-02 6.293231e-01 -3.506238e-01 -5.834317e-01 4.799410e-01 5.391253e-01 -1.024791e-01 -1.827629e-01 -1.154755e-01 -1.145865e-03
<VARIANCE> 39
 2.475589e+01 2.519259e+01 4.749917e+01 3.629257e+01 5.938311e+01 4.329178e+01 7.247856e+01 4.404832e+01 3.701543e+01 4.478983e+01 5.825202e+01 8.200365e+01 5.213411e-03 8.838249e-01 2.111094e+00 2.081705e+00 6.836736e+00 2.732735e+00 5.039335e+00 4.442132e+00 4.921427e+00 3.389055e+00 3.109472e+00 3.288614e+00 5.509826e+00 9.731084e-05 7.465204e-02 2.814791e-01 3.910091e-01 5.133205e-01 8.813589e-01 6.417618e-01 1.250147e+00 8.323489e-01 6.254336e-01 5.846469e-01 5.151004e-01 7.624297e-01 1.349334e-05
<GCONST> 9.796236e+01
<MIXTURE> 5 1.197276e-01
<MEAN> 39
 9.609869e+00 -3.190166e+00 -9.651793e+00 7.421137e-01 3.607448e+00 -4.885487e+00 -6.442846e+00 -1.440454e-01 3.580269e+00 3.941786e+00 -2.954572e+00 -4.326766e+00 8.590465e-01 1.080886e+00 1.052678e+00 -4.746517e-01 -1.183312e+00 9.326292e-01 2.116570e+00 -1.541621e-01 -1.891822e+00 -3.216986e-01 1.715108e+00 1.366427e+00 -2.826168e-01 -8.060900e-03 -2.382168e-01 -2.956282e-02 4.213624e-01 -1.548285e-01 -6.983468e-01 8.606058e-02 8.172994e-01 5.425087e-02 -7.898323e-01 -4.616250e-01 3.171695e-01 4.155283e-01 1.177858e-04
<VARIANCE> 39
 1.341640e+01 2.392923e+01 2.516566e+01 2.016447e+01 2.361285e+01 3.520832e+01 3.286473e+01 3.618482e+01 2.970920e+01 3.448745e+01 3.883574e+01 3.545516e+01 6.750088e-03 3.434054e-01 5.182217e-01 1.120927e+00 1.417084e+00 2.469362e+00 2.262651e+00 2.922614e+00 2.407427e+00 2.865855e+00 2.446805e+00 2.568230e+00 2.997127e+00 1.579040e-04 5.486403e-02 1.085820e-01 2.080308e-01 2.791570e-01 3.392023e-01 4.949255e-01 4.802484e-01 4.915969e-01 3.862813e-01 5.047267e-01 4.691733e-01 3.764562e-01 1.812751e-05
<GCONST> 7.880286e+01
<MIXTURE> 6 1.618808e-01
<MEAN> 39
 1.125601e+01 7.373419e-01 -8.471652e+00 -5.496683e+00 -1.512445e+00 -2.033996e+00 -8.525909e-01 -9.178023e-01 -1.642374e+00 2.102701e-01 -2.532673e+00 -2.781457e+00 8.463078e-01 1.153894e-01 -7.507542e-01 -2.677319e-01 6.201617e-01 -1.031474e-01 -6.652769e-01 -5.925661e-01 -2.312679e-01 -3.177111e-01 -6.806819e-01 -1.121711e+00 -1.441087e+00 3.638049e-02 -5.101096e-01 7.375257e-02 6.259607e-01 3.672532e-01 3.361503e-01 4.277308e-01 1.250835e-01 1.812408e-01 3.228450e-01 3.422635e-01 4.635577e-01 3.071311e-01 -2.471294e-02
<VARIANCE> 39
 2.998476e+01 3.508579e+01 2.784227e+01 2.511934e+01 2.652724e+01 3.154210e+01 2.540416e+01 2.578208e+01 2.803142e+01 2.933240e+01 3.727418e+01 3.562300e+01 8.318182e-03 7.698146e-01 1.102653e+00 1.793048e+00 1.870083e+00 1.676159e+00 1.926824e+00 2.318378e+00 2.487156e+00 2.796093e+00 3.077568e+00 3.268696e+00 3.373005e+00 5.517376e-04 3.186303e-01 2.282766e-01 4.440198e-01 4.124141e-01 2.999714e-01 3.716752e-01 4.118656e-01 4.908794e-01 4.348324e-01 4.405603e-01 5.741009e-01 5.226246e-01 2.897215e-04
<GCONST> 8.942059e+01
<STATE> 3
<NUMMIXES> 6
<MIXTURE> 1 1.284917e-01
<MEAN> 39
 8.650340e+00 -2.894355e+00 -1.020107e+01 -3.222747e+00 -2.834984e+00 -4.447508e+00 -5.235669e+00 -5.721604e+00 -2.788858e+00 -2.467221e+00 -3.902274e+00 -7.473328e+00 8.931175e-01 3.813719e-01 3.008974e-01 2.209367e-01 2.068286e-01 3.058603e-01 3.736519e-01 1.087571e-01 4.068254e-02 2.079133e-01 4.524678e-01 1.422939e-01 -1.783434e-01 -2.980445e-03 1.076335e-01 2.104156e-01 3.619369e-01 2.889012e-01 3.683436e-01 4.739316e-01 5.026240e-01 4.975459e-01 3.710002e-01 3.204300e-01 4.233302e-01 5.386956e-01 -1.472631e-03
<VARIANCE> 39
 2.416952e+01 2.962552e+01 3.493316e+01 2.458619e+01 2.344252e+01 2.604489e+01 1.957115e+01 2.796978e+01 2.870021e+01 2.439375e+01 3.052645e+01 4.740304e+01 4.897808e-03 3.424769e-01 6.620956e-01 9.692765e-01 9.210521e-01 1.195069e+00 1.591573e+00 2.023720e+00 2.304261e+00 1.742758e+00 2.155732e+00 2.551440e+00 2.490063e+00 6.624415e-05 3.278115e-02 8.905154e-02 1.443106e-01 1.542439e-01 1.728412e-01 1.900496e-01 2.197971e-01 2.916981e-01 2.809049e-01 2.601072e-01 2.638505e-01 3.555212e-01 9.688140e-06
<GCONST> 6.803940e+01
<MIXTURE> 2 1.423070e-01
<MEAN> 39
 1.066058e+01 -1.623658e-01 -1.016819e+01 -2.053992e+00 3.263419e+00 -4.868513e-02 -3.153184e+00 -2.373737e+00 -2.938614e-01 5.862124e+00 1.220060e+00 -2.188469e+00 8.593734e-01 5.829054e-01 7.589444e-01 2.992128e-01 -4.561702e-01 -2.195551e-01 1.040066e+00 9.664508e-01 -3.121718e-01 -8.117304e-01 1.060937e-01 1.339219e+00 1.087389e+00 -8.059449e-03 -1.362435e-01 -1.300047e-01 9.936267e-02 1.424906e-01 -2.001188e-01 -2.883555e-01 8.592246e-02 3.421223e-01 -5.214668e-03 -4.679975e-01 -2.642184e-01 7.915272e-02 -9.064028e-04
<VARIANCE> 39
 1.549620e+01 2.281330e+01 2.802445e+01 2.047865e+01 2.440506e+01 2.495890e+01 2.139743e+01 2.506483e+01 2.940196e+01 2.216126e+01 2.503922e+01 2.930005e+01 5.295391e-03 2.115374e-01 5.123964e-01 8.119573e-01 1.233272e+00 1.018556e+00 1.331205e+00 1.425634e+00 1.624769e+00 1.802909e+00 1.816682e+00 1.626573e+00 1.735635e+00 1.318075e-04 3.374925e-02 7.351939e-02 1.099816e-01 1.642484e-01 1.730999e-01 2.606743e-01 2.620342e-01 2.999365e-01 2.889421e-01 2.445122e-01 3.064581e-01 2.775137e-01 1.663100e-05
<GCONST> 6.487132e+01
<MIXTURE> 3 2.910219e-01
<MEAN> 39
 3.235880e+00 2.515043e-01 -3.388528e+00 -9.051459e-02 -7.751055e-01 -3.643253e-01 -2.549495e-01 -8.104527e-01 -3.852696e-01 -3.095478e-01 4.104031e-01 1.201935e-01 9.385582e-01 4.229838e-02 1.058169e-01 2.390920e-02 -5.433088e-03 6.326679e-02 1.798546e-01 2.054771e-02 5.079419e-02 1.087121e-01 6.114011e-02 5.434009e-02 -3.116732e-03 -4.117014e-03 -6.401594e-04 -4.169240e-03 -9.153731e-03 -3.009492e-02 -3.655277e-03 -8.090487e-03 -1.414320e-02 -2.924606e-02 -3.848805e-02 2.020930e-02 -8.648017e-03 -2.422508e-02 -7.048083e-04
<VARIANCE> 39
 6.804399e+00 8.157838e+00 1.449430e+01 8.204268e+00 7.548006e+00 9.041211e+00 1.173004e+01 1.048120e+01 1.206618e+01 1.356694e+01 1.046516e+01 1.432277e+01 2.825328e-03 1.102258e-01 2.837415e-01 3.755593e-01 4.194720e-01 5.930635e-01 6.470239e-01 7.425494e-01 8.243895e-01 9.254384e-01 7.686577e-01 8.145456e-01 8.493764e-01 4.028762e-05 1.596882e-02 4.230775e-02 6.257007e-02 6.780417e-02 9.742456e-02 1.064744e-01 1.310786e-01 1.274000e-01 1.362448e-01 1.299402e-01 1.431954e-01 1.251124e-01 3.730628e-06
<GCONST> 3.417731e+01
<MIXTURE> 4 1.311821e-01
<MEAN> 39
 1.166878e+01 -1.338546e+00 -8.347913e+00 -1.974957e+00 1.326782e+00 -5.930522e-01 -7.736386e-01 -1.660711e+00 -3.560882e-01 8.512478e-01 -7.046870e-01 -3.821849e+00 8.703470e-01 4.357219e-02 -2.482303e-01 -3.366514e-01 -2.949831e-01 -5.298620e-01 -2.090307e-01 -5.586867e-01 -7.830442e-01 -8.134844e-01 -6.321945e-01 -5.133195e-01 -9.331666e-01 3.925570e-03 -1.588011e-01 -8.415261e-02 7.323708e-02 -3.982484e-04 -1.454119e-01 -1.161208e-01 -1.727842e-01 -9.560801e-02 -1.644567e-04 1.815748e-02 2.231999e-02 1.022832e-01 -4.463770e-03
<VARIANCE> 39
 1.489262e+01 3.094847e+01 2.153763e+01 2.003580e+01 2.930649e+01 3.008197e+01 2.394981e+01 3.508645e+01 2.995951e+01 3.529038e+01 3.307862e+01 6.288646e+01 5.844781e-03 4.169289e-01 8.325610e-01 1.155335e+00 1.386567e+00 1.773800e+00 1.413160e+00 2.078483e+00 2.197828e+00 1.964996e+00 2.182838e+00 2.383289e+00 3.407476e+00 2.185569e-04 5.026300e-02 1.273981e-01 1.863568e-01 2.432215e-01 2.281546e-01 2.863083e-01 3.497598e-01 5.226797e-01 3.839029e-01 3.822471e-01 3.980019e-01 5.146042e-01 4.605366e-05
<GCONST> 7.776507e+01
<MIXTURE> 5 1.423035e-01
<MEAN> 39
 1.066050e+01 -1.623788e-01 -1.016810e+01 -2.053912e+00 3.263439e+00 -4.877231e-02 -3.153200e+00 -2.373636e+00 -2.937331e-01 5.862056e+00 1.219903e+00 -2.188571e+00 8.593743e-01 5.829045e-01 7.589357e-01 2.992019e-01 -4.561493e-01 -2.195259e-01 1.040059e+00 9.664219e-01 -3.121706e-01 -8.116796e-01 1.061442e-01 1.339208e+00 1.087352e+00 -8.059320e-03 -1.362391e-01 -1.300006e-01 9.935690e-02 1.424796e-01 -2.001186e-01 -2.883390e-01 8.592678e-02 3.421032e-01 -5.232912e-03 -4.679865e-01 -2.641967e-01 7.915853e-02 -9.064229e-04
<VARIANCE> 39
 1.549631e+01 2.281304e+01 2.802447e+01 2.047880e+01 2.440543e+01 2.495918e+01 2.139720e+01 2.506514e+01 2.940220e+01 2.216139e+01 2.503919e+01 2.930005e+01 5.295375e-03 2.115374e-01 5.123984e-01 8.119521e-01 1.233262e+00 1.018549e+00 1.331197e+00 1.425623e+00 1.624771e+00 1.802885e+00 1.816652e+00 1.626540e+00 1.735629e+00 1.318053e-04 3.374864e-02 7.351968e-02 1.099808e-01 1.642476e-01 1.730976e-01 2.606727e-01 2.620355e-01 2.999321e-01 2.889416e-01 2.445079e-01 3.064533e-01 2.775096e-01 1.663100e-05
<GCONST> 6.487115e+01
<MIXTURE> 6 1.646907e-01
<MEAN> 39
 8.216532e+00 6.753839e-01 -6.244791e+00 -2.347205e+00 -1.134703e+00 -8.265988e-01 -1.278144e+00 -1.051960e+00 -2.643205e+00 -3.161172e-01 6.358852e-01 -8.857602e-01 8.808203e-01 -8.174045e-02 -2.054129e-02 -1.036975e-01 1.332688e-01 -2.462304e-03 -1.860382e-02 -4.846353e-02 -8.668546e-02 -1.896923e-02 -2.195557e-01 -9.650026e-02 -2.708554e-02 5.232600e-03 2.989724e-02 3.490325e-02 4.875920e-03 -7.348104e-02 7.976653e-02 1.109745e-01 -8.311412e-02 -9.100731e-02 1.001404e-01 1.717052e-01 3.180990e-02 -2.886775e-02 -4.379345e-03
<VARIANCE> 39
 2.478045e+01 2.272383e+01 4.389283e+01 2.047189e+01 2.028462e+01 1.868728e+01 1.857617e+01 2.151098e+01 2.492034e+01 1.865178e+01 2.832793e+01 2.895411e+01 7.850008e-03 2.485523e-01 5.596866e-01 8.440897e-01 6.799639e-01 8.102017e-01 7.580850e-01 1.385863e+00 1.444821e+00 1.553727e+00 1.264489e+00 1.525295e+00 1.318927e+00 1.483473e-04 5.131365e-02 9.170863e-02 1.679948e-01 1.229809e-01 1.483010e-01 1.767254e-01 2.543812e-01 2.957247e-01 3.112766e-01 2.299362e-01 2.955009e-01 2.949348e-01 2.004180e-05
<GCONST> 6.361894e+01
<STATE> 4
<NUMMIXES> 6
<MIXTURE> 1 7.392354e-02
<MEAN> 39
 1.379843e+01 -2.237087e+00 -8.809540e+00 -1.979543e+00 1.686937e+00 -1.157093e+00 -1.794888e+00 -3.614660e+00 -1.228316e+00 2.990479e-01 -2.636159e+00 -7.466820e+00 8.005223e-01 5.713195e-01 3.968820e-01 5.539683e-01 6.414522e-01 7.701424e-01 8.697155e-01 6.009091e-01 7.457305e-01 8.843744e-01 1.045104e+00 1.049338e+00 6.210464e-01 -1.308778e-02 -9.376111e-02 4.154091e-02 1.287498e-01 1.300569e-01 2.916974e-02 1.200166e-02 1.119307e-01 2.681744e-01 2.489173e-01 1.435897e-01 8.259974e-02 2.857834e-01 -1.215113e-03
<VARIANCE> 39
 7.196416e+00 2.387332e+01 1.835826e+01 1.589445e+01 2.013921e+01 2.335176e+01 2.291412e+01 1.705101e+01 1.986488e+01 3.109354e+01 4.685170e+01 5.029069e+01 8.761713e-03 2.516952e-01 7.195160e-01 6.538515e-01 9.223648e-01 1.097229e+00 1.165216e+00 1.371327e+00 1.345668e+00 1.675360e+00 1.596333e+00 1.763056e+00 2.927960e+00 1.366183e-04 4.851184e-02 1.240874e-01 1.125190e-01 1.668855e-01 2.012295e-01 2.271003e-01 2.360771e-01 2.998357e-01 3.265026e-01 3.188863e-01 3.757536e-01 5.342825e-01 1.601003e-05
<GCONST> 6.671325e+01
<MIXTURE> 2 1.106350e-01
<MEAN> 39
 1.314067e+01 6.810791e-01 -7.541296e+00 6.438023e-02 3.475210e+00 1.478813e+00 -1.676591e+00 -6.606025e-01 1.378894e+00 5.136529e+00 3.522491e+00 -6.040677e-01 7.768823e-01 2.359691e-01 4.215531e-01 1.898808e-01 -3.669459e-02 1.110724e-01 6.320884e-01 2.016537e-01 -1.299109e-01 -2.931580e-02 2.349557e-01 6.064042e-01 4.325882e-01 -1.034351e-02 -8.817846e-02 9.906539e-03 -2.606736e-02 -8.853462e-02 -5.099430e-02 -6.395558e-02 1.373035e-02 2.141682e-03 -7.032796e-02 -7.653983e-02 -1.324703e-01 -7.456852e-02 -6.410485e-05
<VARIANCE> 39
 6.959691e+00 2.338494e+01 1.525396e+01 1.472535e+01 1.886582e+01 2.013659e+01 1.713680e+01 2.853080e+01 2.604395e+01 2.484903e+01 2.236556e+01 3.103388e+01 7.441791e-03 1.483523e-01 4.218599e-01 5.488321e-01 7.036395e-01 6.595166e-01 7.601672e-01 9.514163e-01 1.226927e+00 1.251791e+00 1.175135e+00 1.201360e+00 1.130824e+00 7.598606e-05 2.067823e-02 7.205036e-02 8.643533e-02 1.263947e-01 1.168823e-01 1.652788e-01 1.556014e-01 2.354965e-01 1.738814e-01 2.100566e-01 2.537351e-01 2.246132e-01 7.565874e-06
<GCONST> 5.313400e+01
<MIXTURE> 3 3.985928e-01
<MEAN> 39
 1.203225e+01 4.218077e+00 -9.129025e+00 -3.669814e+00 3.138132e+00 1.047642e+00 -7.062852e-04 -1.526462e+00 -1.467442e+00 4.258911e+00 3.758329e+00 1.488496e+00 8.086557e-01 1.217147e-01 1.572814e-01 1.767384e-01 7.272166e-03 -5.427743e-03 1.859474e-01 1.893950e-01 -7.214566e-02 1.647224e-01 -3.905101e-03 8.054736e-02 9.617463e-02 -6.170881e-03 -2.980313e-02 -8.227570e-02 3.033374e-02 5.987467e-02 -9.030825e-03 -1.797538e-02 -9.480499e-02 3.211213e-02 7.258768e-02 4.146818e-02 -5.550970e-02 -1.027511e-01 -1.194749e-03
<VARIANCE> 39
 8.419397e+00 2.667634e+01 2.507299e+01 1.924957e+01 2.221187e+01 1.763319e+01 2.454957e+01 1.832389e+01 2.192173e+01 2.461127e+01 2.268482e+01 1.965865e+01 7.465368e-03 1.465179e-01 2.709023e-01 4.258401e-01 4.264071e-01 4.203027e-01 6.365829e-01 7.867423e-01 7.571251e-01 8.343121e-01 8.698999e-01 8.785419e-01 8.040868e-01 7.616301e-05 1.827398e-02 3.803308e-02 5.952259e-02 7.576527e-02 7.307694e-02 1.146220e-01 1.437310e-01 1.376840e-01 1.501227e-01 1.491521e-01 1.718476e-01 1.341116e-01 6.803676e-06
<GCONST> 4.507823e+01
<MIXTURE> 4 1.461367e-01
<MEAN> 39
 1.268336e+01 3.540535e-01 -7.572044e+00 -3.822289e+00 -1.471316e-01 8.744276e-01 4.013424e-01 -2.839970e+00 -4.352144e+00 4.317080e-01 -1.521225e-01 -1.298306e+00 8.072015e-01 1.785986e-01 2.396224e-01 3.608208e-01 -1.675224e-01 -3.748656e-01 1.565850e-01 2.969100e-01 2.975244e-01 -2.603118e-01 -4.503753e-01 -4.197097e-02 -3.434600e-02 -6.523197e-03 -9.616356e-02 -1.202191e-01 -2.264474e-02 2.250280e-01 1.903119e-01 -2.447241e-01 -3.649820e-01 1.551794e-01 4.695005e-01 1.779136e-01 -1.404988e-01 -1.741406e-01 -9.724836e-04
<VARIANCE> 39
 1.288249e+01 3.502367e+01 2.661486e+01 2.061822e+01 2.631277e+01 3.469484e+01 2.756991e+01 3.676059e+01 2.727762e+01 3.505383e+01 4.545990e+01 5.247396e+01 8.503309e-03 3.480221e-01 8.539611e-01 1.269935e+00 1.329240e+00 1.689383e+00 1.732811e+00 1.819022e+00 2.292906e+00 1.930940e+00 1.816003e+00 2.014565e+00 2.532998e+00 2.716881e-04 4.295385e-02 1.176000e-01 1.843292e-01 2.656830e-01 2.554190e-01 3.915699e-01 3.192466e-01 5.458834e-01 4.038890e-01 3.886842e-01 5.116255e-01 4.831120e-01 2.314708e-05
<GCONST> 7.791631e+01
<MIXTURE> 5 1.106351e-01
<MEAN> 39
 1.314065e+01 6.810538e-01 -7.541258e+00 6.439191e-02 3.475164e+00 1.478804e+00 -1.676572e+00 -6.605751e-01 1.378881e+00 5.136464e+00 3.522476e+00 -6.040765e-01 7.768821e-01 2.359687e-01 4.215510e-01 1.898793e-01 -3.669393e-02 1.110788e-01 6.320851e-01 2.016493e-01 -1.299072e-01 -2.931185e-02 2.349592e-01 6.064003e-01 4.325860e-01 -1.034348e-02 -8.817732e-02 9.909193e-03 -2.606907e-02 -8.853733e-02 -5.099389e-02 -6.395265e-02 1.373069e-02 2.136822e-03 -7.032865e-02 -7.653638e-02 -1.324685e-01 -7.456890e-02 -6.409819e-05
<VARIANCE> 39
 6.959727e+00 2.338503e+01 1.525401e+01 1.472534e+01 1.886586e+01 2.013649e+01 1.713668e+01 2.853074e+01 2.604399e+01 2.484896e+01 2.236567e+01 3.103398e+01 7.441836e-03 1.483522e-01 4.218650e-01 5.488276e-01 7.036417e-01 6.595191e-01 7.601705e-01 9.514155e-01 1.226926e+00 1.251791e+00 1.175136e+00 1.201364e+00 1.130834e+00 7.598594e-05 2.067827e-02 7.205112e-02 8.643530e-02 1.263942e-01 1.168827e-01 1.652787e-01 1.556009e-01 2.354954e-01 1.738807e-01 2.100565e-01 2.537357e-01 2.246132e-01 7.565828e-06
<GCONST> 5.313404e+01
<MIXTURE> 6 1.600740e-01
<MEAN> 39
 1.215319e+01 4.159147e+00 -7.475447e+00 -4.627210e+00 -1.078114e+00 1.443018e+00 1.039689e+00 7.007970e-01 -4.337900e+00 1.214957e+00 2.186822e+00 3.442544e+00 7.842726e-01 1.151663e-01 2.674468e-01 3.044052e-01 3.099778e-02 -3.825350e-03 1.736427e-01 1.042512e-01 2.519293e-01 1.658699e-01 -3.053117e-02 -1.035980e-02 1.441384e-01 -8.059858e-03 -4.208359e-02 -1.393811e-01 -4.152431e-02 1.388120e-01 2.447599e-01 -6.314897e-03 -2.711924e-01 -1.692649e-01 3.309169e-01 3.323007e-01 -1.374171e-02 -3.064735e-01 -1.010074e-03
<VARIANCE> 39
 1.576832e+01 2.435645e+01 3.056978e+01 1.215961e+01 1.809991e+01 1.564168e+01 1.993546e+01 2.443528e+01 1.917511e+01 1.883193e+01 2.112374e+01 2.217815e+01 6.498048e-03 1.534806e-01 5.257442e-01 7.695280e-01 7.689011e-01 6.323983e-01 1.100023e+00 1.084055e+00 1.374486e+00 1.076498e+00 1.409292e+00 1.508473e+00 1.059563e+00 1.365781e-04 3.044510e-02 7.451951e-02 1.241007e-01 1.042445e-01 1.116915e-01 1.686020e-01 2.143755e-01 2.269390e-01 2.282604e-01 2.321782e-01 2.346187e-01 2.298555e-01 1.120990e-05
<GCONST> 5.667621e+01
<STATE> 5
<NUMMIXES> 6
<MIXTURE> 1 8.961126e-02
<MEAN> 39
 1.412940e+01 4.696949e+00 -7.681887e+00 -5.429163e+00 -4.637808e+00 1.203324e+00 4.454764e-01 2.437868e+00 -2.212903e+00 -2.127053e+00 -2.104103e+00 -3.444000e+00 7.730151e-01 1.750621e-01 1.729464e-01 1.356704e-01 3.905504e-01 7.087244e-01 8.373224e-01 -6.884430e-02 2.336928e-01 8.403033e-01 1.186833e+00 6.234526e-01 1.159536e-01 -9.126927e-03 -6.931501e-02 -2.212750e-01 -1.480953e-01 2.264512e-01 4.212269e-01 1.027900e-01 -2.463473e-01 -4.431030e-01 1.246426e-01 4.658051e-01 3.791069e-01 1.424253e-01 -1.037968e-03
<VARIANCE> 39
 7.752703e+00 2.902411e+01 2.084734e+01 1.748560e+01 1.737735e+01 2.407465e+01 3.417151e+01 3.915081e+01 3.100755e+01 2.285878e+01 3.074820e+01 5.167182e+01 1.040369e-02 3.255664e-01 7.631198e-01 1.772840e+00 1.348838e+00 1.600672e+00 9.401949e-01 1.562516e+00 3.955432e+00 1.546610e+00 1.975044e+00 2.391775e+00 2.073347e+00 1.839714e-04 3.300351e-02 1.840820e-01 1.646815e-01 2.209086e-01 2.282504e-01 2.465947e-01 3.429508e-01 4.344364e-01 3.358511e-01 3.890870e-01 3.344883e-01 3.782519e-01 1.110581e-05
<GCONST> 7.271349e+01
<MIXTURE> 2 1.814517e-01
<MEAN> 39
 1.212405e+01 2.903450e+00 -4.508770e+00 -1.010853e+00 1.894368e+00 4.049729e+00 8.225059e-01 -2.086460e-01 1.934856e+00 3.463828e+00 4.529021e+00 1.059914e+00 7.265193e-01 -1.194219e-01 1.359646e-01 4.169751e-01 2.907402e-01 3.537281e-01 2.404962e-01 -3.681661e-02 1.018340e-01 3.007967e-01 4.067106e-01 1.696632e-01 -1.552074e-02 -1.260755e-02 -6.826603e-02 -4.932315e-02 -7.102260e-02 -4.777943e-03 2.389233e-02 -2.186190e-01 -1.057822e-01 -1.658804e-02 -5.097025e-02 -3.384408e-02 -1.832842e-01 -1.427736e-01 4.584097e-04
<VARIANCE> 39
 2.004477e+01 3.122877e+01 2.602736e+01 1.755362e+01 1.575364e+01 1.732704e+01 2.190939e+01 2.493861e+01 1.999459e+01 2.392313e+01 2.545104e+01 3.340321e+01 1.284380e-02 3.241034e-01 5.792577e-01 1.075730e+00 8.965861e-01 9.645578e-01 1.171155e+00 1.440398e+00 1.220865e+00 1.449109e+00 1.453961e+00 1.617247e+00 1.632642e+00 1.607079e-04 6.167440e-02 8.517490e-02 1.479710e-01 1.457778e-01 1.693045e-01 2.314436e-01 2.784083e-01 2.369154e-01 2.782364e-01 2.720697e-01 2.766819e-01 2.701272e-01 1.897439e-05
<GCONST> 6.558148e+01
<MIXTURE> 3 3.134813e-01
<MEAN> 39
 1.338304e+01 1.240832e+00 -8.593225e+00 -1.899367e+00 4.473904e+00 2.383160e+00 -1.161408e+00 -3.176759e+00 -1.372969e+00 6.173689e+00 5.253235e+00 7.589965e-01 8.095875e-01 -1.941345e-01 -3.408488e-01 1.301312e-01 7.315486e-01 5.098855e-01 -3.217921e-01 -7.745640e-01 1.246827e-01 1.152081e+00 9.292051e-01 -2.105933e-01 -7.526495e-01 -6.328970e-03 -1.704491e-01 -1.586078e-01 1.046098e-01 2.993380e-01 -2.742397e-02 -5.555323e-01 -3.173135e-01 4.125348e-01 4.900467e-01 -1.002178e-01 -5.641890e-01 -2.879774e-01 -5.832568e-05
<VARIANCE> 39
 7.072558e+00 2.999711e+01 1.935892e+01 1.788202e+01 1.962693e+01 2.292015e+01 2.518147e+01 2.580796e+01 2.481857e+01 2.317982e+01 2.065102e+01 2.628089e+01 6.222375e-03 2.127046e-01 5.041109e-01 6.620375e-01 6.843140e-01 8.386754e-01 1.155475e+00 1.413638e+00 1.487024e+00 1.424511e+00 1.284423e+00 1.501293e+00 1.444055e+00 1.284226e-04 3.136821e-02 6.544038e-02 1.175647e-01 1.264236e-01 1.440116e-01 2.589884e-01 2.108959e-01 2.639711e-01 2.355229e-01 2.657880e-01 2.419748e-01 2.162386e-01 8.399270e-06
<GCONST> 5.916049e+01
<MIXTURE> 4 1.237650e-01
<MEAN> 39
 1.269907e+01 -3.617797e+00 -8.337926e+00 -4.740788e+00 2.142984e-01 -1.302759e-01 -2.583246e+00 -4.278567e+00 -3.986286e+00 -3.174381e+00 -4.851141e+00 -9.370951e+00 8.788811e-01 -1.496745e-01 -4.458275e-01 1.562153e-01 7.532799e-01 -1.513377e-01 -8.788633e-01 -8.271039e-01 2.337754e-01 8.691597e-01 3.309504e-01 -7.312140e-01 -1.251894e+00 -1.979922e-03 9.070232e-03 -7.443050e-02 1.160441e-01 3.970131e-01 2.362142e-01 -3.662751e-02 -5.815995e-02 3.110564e-01 4.062382e-01 3.044555e-01 1.752151e-01 3.862807e-01 -1.412207e-03
<VARIANCE> 39
 1.081548e+01 2.752700e+01 1.574841e+01 2.296959e+01 2.973860e+01 4.557582e+01 2.111744e+01 3.157261e+01 5.465596e+01 4.900236e+01 4.566065e+01 4.452710e+01 3.985811e-03 2.936541e-01 7.515427e-01 9.322268e-01 1.779228e+00 1.243089e+00 1.337714e+00 1.994607e+00 2.267009e+00 2.228653e+00 2.052193e+00 1.510274e+00 2.846818e+00 8.443974e-05 3.661747e-02 1.342507e-01 1.672865e-01 2.736105e-01 3.184671e-01 2.695587e-01 3.756829e-01 4.896163e-01 4.943532e-01 3.817497e-01 2.740963e-01 5.342812e-01 8.446578e-06
<GCONST> 7.375748e+01
<MIXTURE> 5 1.814467e-01
<MEAN> 39
 1.212445e+01 2.903475e+00 -4.508917e+00 -1.010801e+00 1.894426e+00 4.049752e+00 8.225925e-01 -2.084883e-01 1.934954e+00 3.463928e+00 4.529047e+00 1.059886e+00 7.265151e-01 -1.194131e-01 1.359769e-01 4.169750e-01 2.907429e-01 3.537772e-01 2.405192e-01 -3.683511e-02 1.018372e-01 3.008294e-01 4.067305e-01 1.696884e-01 -1.549812e-02 -1.260772e-02 -6.827757e-02 -4.932866e-02 -7.103028e-02 -4.782362e-03 2.389156e-02 -2.186284e-01 -1.057926e-01 -1.660970e-02 -5.097281e-02 -3.385155e-02 -1.832937e-01 -1.427793e-01 4.585282e-04
<VARIANCE> 39
 2.004253e+01 3.122982e+01 2.602744e+01 1.755386e+01 1.575409e+01 1.732751e+01 2.191014e+01 2.493918e+01 1.999507e+01 2.392370e+01 2.545187e+01 3.340524e+01 1.284356e-02 3.241171e-01 5.792720e-01 1.075754e+00 8.965977e-01 9.646004e-01 1.171181e+00 1.440443e+00 1.220902e+00 1.449177e+00 1.454020e+00 1.617311e+00 1.632695e+00 1.607150e-04 6.167434e-02 8.517872e-02 1.479679e-01 1.457818e-01 1.693129e-01 2.314519e-01 2.784158e-01 2.369220e-01 2.782466e-01 2.720757e-01 2.766943e-01 2.701344e-01 1.897491e-05
<GCONST> 6.558244e+01
<MIXTURE> 6 1.102425e-01
<MEAN> 39
 1.335505e+01 1.610074e+00 -8.876907e+00 -3.017956e+00 1.834158e+00 2.251557e+00 -2.189571e+00 -3.940717e+00 -1.718041e+00 3.966087e+00 3.034318e+00 -3.757782e-01 7.932776e-01 -3.301167e-01 -7.479971e-01 -2.680151e-01 1.150146e+00 1.071937e+00 -1.769846e-01 -1.593031e+00 -3.427368e-01 1.290523e+00 1.517489e+00 2.311291e-01 -9.099622e-01 -2.730616e-03 -2.864210e-01 -1.990415e-01 1.694854e-01 5.331711e-01 -7.732616e-02 -8.797678e-01 -1.695852e-01 7.805208e-01 6.181981e-01 -2.593473e-01 -7.204805e-01 -2.553609e-01 -6.787368e-04
<VARIANCE> 39
 8.980434e+00 3.779851e+01 2.454013e+01 1.627639e+01 2.910425e+01 2.967996e+01 3.238410e+01 2.960320e+01 3.361103e+01 2.531634e+01 3.964631e+01 5.003896e+01 9.828720e-03 4.126295e-01 1.294425e+00 1.640584e+00 1.153848e+00 1.897027e+00 2.156504e+00 2.194929e+00 2.695518e+00 2.161044e+00 2.921896e+00 2.725471e+00 2.127254e+00 2.034479e-04 6.540144e-02 1.732567e-01 2.176260e-01 2.180150e-01 3.253201e-01 3.757040e-01 3.999729e-01 4.546045e-01 3.048609e-01 4.431827e-01 4.219947e-01 4.884726e-01 2.631390e-05
<GCONST> 7.967459e+01
<STATE> 6
<NUMMIXES> 6
<MIXTURE> 1 2.450522e-02
<MEAN> 39
 8.228879e+00 -6.795063e+00 -7.511803e+00 1.406184e+00 -8.983656e-01 3.347107e+00 -6.862012e+00 -3.564568e+00 -2.522667e-01 2.038077e+00 2.525188e-01 1.837988e+00 8.753166e-01 -1.397910e-01 -3.475246e-01 1.262765e+00 1.881008e+00 1.743880e+00 -6.877294e-02 -6.638519e-01 1.340481e+00 1.861167e+00 6.114106e-01 4.283854e-01 9.677886e-01 6.244773e-03 -5.403889e-03 4.392615e-01 3.515592e-01 1.107627e-01 4.280093e-02 -4.349770e-01 5.173014e-01 8.557046e-01 -1.942355e-01 -3.840406e-02 3.366107e-01 2.480197e-01 4.241595e-03
<VARIANCE> 39
 2.015912e+00 1.931316e+01 2.755905e+01 3.071326e+01 1.249428e+01 2.639569e+01 9.223785e+00 1.194348e+01 1.120266e+01 2.428823e+01 2.105971e+01 4.614638e+01 2.204186e-03 4.076135e-02 1.088342e+00 6.267824e-01 2.134156e+00 1.985932e+00 1.685872e+00 1.384604e+00 2.660729e+00 2.298840e+00 1.961881e+00 4.511604e+00 6.938890e+00 2.543243e-04 3.445914e-02 8.039001e-02 1.544885e-01 2.948138e-01 5.476851e-01 5.594708e-01 1.454825e-01 4.386457e-01 3.118019e-01 5.569522e-01 3.462759e-01 1.005634e+00 2.344956e-05
<GCONST> 6.893091e+01
<MIXTURE> 2 1.761180e-01
<MEAN> 39
 1.116576e+01 3.956455e+00 -6.002485e+00 -2.084774e+00 1.905465e+00 2.186253e+00 -5.276314e-01 -4.326974e-01 9.081600e-01 3.685607e+00 2.936411e+00 -4.534704e-01 7.510163e-01 -7.170064e-02 8.529629e-02 2.960923e-01 1.825646e-01 2.018342e-01 1.609280e-01 -2.011859e-02 1.422460e-01 1.944180e-01 1.680403e-01 2.506781e-02 3.736278e-02 -1.484161e-02 -9.224973e-02 -8.689584e-02 1.355074e-01 -3.016054e-03 2.872827e-02 -6.951131e-02 -2.393216e-03 6.611257e-02 -9.601846e-02 -2.028569e-01 -1.296001e-01 7.069425e-03 -2.112256e-03
<VARIANCE> 39
 2.409319e+01 2.898743e+01 2.923590e+01 2.014801e+01 2.274446e+01 2.372976e+01 1.684528e+01 2.289147e+01 2.552453e+01 2.751446e+01 3.283983e+01 3.176454e+01 1.512109e-02 2.917568e-01 5.512990e-01 9.023623e-01 1.024907e+00 8.905081e-01 1.029437e+00 1.363797e+00 1.400202e+00 1.852283e+00 1.314576e+00 1.277120e+00 1.539681e+00 1.466686e-04 4.512212e-02 7.671814e-02 1.657372e-01 1.567356e-01 1.668845e-01 1.877818e-01 2.460713e-01 2.768258e-01 2.199353e-01 2.890289e-01 3.135696e-01 2.554423e-01 1.587571e-05
<GCONST> 6.575950e+01
<MIXTURE> 3 3.127386e-01
<MEAN> 39
 1.271301e+01 -1.279480e+00 -7.272406e+00 1.082478e+00 6.052946e+00 -4.620172e-01 -3.610834e+00 -1.935188e+00 3.227561e+00 8.302240e+00 1.246781e+00 -4.008070e+00 8.157063e-01 -4.285633e-01 -4.274939e-01 4.008439e-01 1.303795e+00 -3.155787e-03 -1.420379e+00 -9.351608e-01 1.637174e+00 1.744546e+00 -2.993300e-01 -1.441547e+00 -4.900597e-01 -4.990540e-03 -2.259745e-01 -7.651587e-02 2.883984e-01 1.813089e-01 -5.036601e-01 -6.087723e-01 3.165389e-01 7.091391e-01 -1.778820e-01 -8.818035e-01 -1.394199e-01 4.513493e-01 4.321923e-04
<VARIANCE> 39
 9.180891e+00 2.761022e+01 2.290702e+01 1.767498e+01 1.816565e+01 2.635890e+01 2.124651e+01 2.657767e+01 2.653324e+01 2.037543e+01 2.866021e+01 2.462853e+01 5.265385e-03 2.244226e-01 4.046847e-01 8.608309e-01 9.266631e-01 1.016338e+00 1.014244e+00 1.703032e+00 1.506077e+00 1.672711e+00 1.738411e+00 1.442327e+00 1.998711e+00 9.132984e-05 4.816208e-02 8.394741e-02 1.633841e-01 1.483172e-01 1.636146e-01 2.543198e-01 2.888363e-01 2.740356e-01 2.890662e-01 2.141019e-01 2.450080e-01 2.962818e-01 7.545486e-06
<GCONST> 6.235530e+01
<MIXTURE> 4 1.237709e-01
<MEAN> 39
 1.245172e+01 -2.977161e+00 -8.829114e+00 3.214825e-01 3.370407e+00 -2.989285e+00 -5.958168e+00 -2.332968e+00 3.380657e+00 3.135324e+00 -3.729940e+00 -1.038740e+01 8.206259e-01 -5.630811e-01 -6.604941e-01 2.609779e-01 1.621603e+00 1.794519e-01 -1.705707e+00 -6.242536e-01 1.888510e+00 1.824844e+00 -3.146979e-01 -1.725577e+00 -4.778019e-01 -8.923458e-03 -2.694718e-01 -3.903893e-02 4.052378e-01 1.925350e-01 -5.850692e-01 -1.997104e-01 9.304328e-01 6.948987e-01 -4.341587e-01 -7.071022e-01 9.439680e-02 9.669480e-01 -2.358773e-03
<VARIANCE> 39
 1.303525e+01 2.410588e+01 2.975800e+01 2.211855e+01 2.373582e+01 3.304106e+01 2.417773e+01 2.834859e+01 3.981547e+01 4.553195e+01 6.514728e+01 4.899031e+01 9.961765e-03 6.268072e-01 9.307002e-01 1.822571e+00 1.538003e+00 2.086700e+00 1.899541e+00 2.735250e+00 2.305053e+00 2.573090e+00 2.842325e+00 2.856619e+00 4.520264e+00 3.540391e-04 9.997773e-02 1.340363e-01 2.234312e-01 2.577775e-01 4.396612e-01 4.268519e-01 3.254853e-01 3.530953e-01 5.760589e-01 4.401771e-01 6.565034e-01 4.899021e-01 4.118616e-05
<GCONST> 8.477849e+01
<MIXTURE> 5 1.761202e-01
<MEAN> 39
 1.116593e+01 3.956509e+00 -6.002625e+00 -2.084719e+00 1.905614e+00 2.186227e+00 -5.276880e-01 -4.327510e-01 9.083132e-01 3.685848e+00 2.936552e+00 -4.534591e-01 7.510134e-01 -7.169584e-02 8.529195e-02 2.960901e-01 1.825657e-01 2.018401e-01 1.609312e-01 -2.012383e-02 1.422389e-01 1.944229e-01 1.680371e-01 2.505478e-02 3.736269e-02 -1.484167e-02 -9.225254e-02 -8.690012e-02 1.355154e-01 -3.020758e-03 2.872244e-02 -6.950909e-02 -2.387568e-03 6.611824e-02 -9.602825e-02 -2.028731e-01 -1.296065e-01 7.070272e-03 -2.112229e-03
<VARIANCE> 39
 2.409225e+01 2.898761e+01 2.923562e+01 2.014808e+01 2.274439e+01 2.373043e+01 1.684547e+01 2.289167e+01 2.552460e+01 2.751445e+01 3.284015e+01 3.176475e+01 1.512107e-02 2.917527e-01 5.512965e-01 9.023381e-01 1.024875e+00 8.905104e-01 1.029431e+00 1.363791e+00 1.400222e+00 1.852286e+00 1.314566e+00 1.277113e+00 1.539705e+00 1.466692e-04 4.512239e-02 7.671787e-02 1.657368e-01 1.567354e-01 1.668807e-01 1.877831e-01 2.460708e-01 2.768274e-01 2.199327e-01 2.890259e-01 3.135706e-01 2.554434e-01 1.587592e-05
<GCONST> 6.575946e+01
<MIXTURE> 6 1.867470e-01
<MEAN> 39
 1.274142e+01 1.398838e+00 -9.171152e+00 -3.555642e-02 5.045890e+00 2.041777e+00 -5.800321e+00 -3.890080e+00 1.900981e+00 9.093050e+00 3.960303e+00 -1.612257e+00 7.697006e-01 -8.469756e-01 -8.386018e-01 5.007954e-01 1.945185e+00 9.360035e-01 -2.651165e+00 -1.792506e+00 1.715783e+00 2.888779e+00 7.799758e-01 -1.796040e+00 -1.542922e+00 -3.267149e-03 -3.725969e-01 -9.279642e-02 7.821105e-01 2.171727e-01 -8.659297e-01 -1.040545e+00 8.217615e-01 1.195362e+00 -1.879802e-01 -1.143535e+00 -4.544126e-01 4.052036e-01 7.728316e-04
<VARIANCE> 39
 1.012383e+01 3.206086e+01 2.126757e+01 1.896641e+01 1.734069e+01 2.028578e+01 2.581571e+01 2.427564e+01 2.701031e+01 2.696968e+01 2.350827e+01 3.207603e+01 1.083720e-02 3.024946e-01 8.796288e-01 1.492211e+00 1.379301e+00 1.346305e+00 2.214095e+00 2.485465e+00 3.123442e+00 1.767926e+00 2.791138e+00 2.024092e+00 1.879256e+00 2.265631e-04 5.880949e-02 1.909262e-01 2.278027e-01 2.798949e-01 3.431683e-01 3.547761e-01 4.023448e-01 2.768940e-01 4.179434e-01 4.860353e-01 5.334770e-01 3.448755e-01 1.719776e-05
<GCONST> 7.573408e+01
<STATE> 7
<NUMMIXES> 6
<MIXTURE> 1 8.566238e-03
<MEAN> 39
 8.985591e+00 -3.694826e+00 -6.491784e+00 5.010728e+00 5.409681e+00 6.591298e+00 -3.191994e+00 2.891451e+00 5.379310e+00 4.670757e+00 6.423555e+00 5.625139e+00 8.600780e-01 -3.684539e-02 6.113772e-01 9.854020e-01 1.779311e+00 8.820504e-01 -1.257707e+00 7.276530e-01 2.202778e+00 9.139649e-01 1.851232e+00 2.359387e+00 2.279838e+00 -2.566708e-03 -2.869786e-01 1.280011e-01 3.515335e-01 -4.069217e-01 -1.207216e+00 -4.733754e-01 4.964271e-01 -4.055412e-01 -6.948822e-01 3.173389e-01 3.403309e-01 -1.271431e-01 1.617260e-03
<VARIANCE> 39
 3.210054e+00 2.592020e+01 2.107656e+01 3.872796e+00 2.500283e+00 1.234724e+01 1.514668e+01 7.320827e+00 6.596268e-01 1.031513e+01 2.499048e+01 5.851647e+01 5.683803e-03 6.765915e-01 3.788635e-01 1.431578e+00 1.347629e+00 1.974926e-01 4.512214e+00 3.961792e-01 4.288152e+00 1.223900e+00 2.250320e+00 2.635445e+00 5.312142e+00 3.824547e-04 1.467984e-01 7.974329e-02 1.608213e-01 1.917880e-01 1.257218e+00 3.720050e-01 2.524916e-01 4.739971e-01 1.303817e-01 3.787546e-01 1.027180e-01 3.194815e-01 8.580570e-06
<GCONST> 5.926771e+01
<MIXTURE> 2 1.400800e-01
<MEAN> 39
